digraph Tree {
node [shape=box, style="filled, rounded", color="black", fontname=helvetica] ;
edge [fontname=helvetica] ;
0 [label="OverallQual <= 7.5\nmse = 6727557556.52\nsamples = 921\nvalue = 181618.42", fillcolor="#e5813934"] ;
1 [label="GrLivArea <= 1413.0\nmse = 2516938076.03\nsamples = 775\nvalue = 158202.75", fillcolor="#e581392c"] ;
0 -> 1 [labeldistance=2.5, labelangle=45, headlabel="True"] ;
2 [label="1stFlrSF <= 1149.0\nmse = 1105582558.88\nsamples = 404\nvalue = 129613.81", fillcolor="#e5813921"] ;
1 -> 2 ;
3 [label="OverallQual <= 4.5\nmse = 727652968.36\nsamples = 302\nvalue = 119530.05", fillcolor="#e581391e"] ;
2 -> 3 ;
4 [label="OverallQual <= 3.5\nmse = 736080790.28\nsamples = 69\nvalue = 94069.86", fillcolor="#e5813915"] ;
3 -> 4 ;
5 [label="1stFlrSF <= 639.5\nmse = 512996085.07\nsamples = 14\nvalue = 67384.88", fillcolor="#e581390b"] ;
4 -> 5 ;
6 [label="BsmtFinSF1 <= 25.0\nmse = 2164493.56\nsamples = 3\nvalue = 37270.33", fillcolor="#e5813901"] ;
5 -> 6 ;
7 [label="Foundation_BrkTil <= 0.5\nmse = 367500.0\nsamples = 2\nvalue = 38250.0", fillcolor="#e5813901"] ;
6 -> 7 ;
8 [label="mse = 0.0\nsamples = 1\nvalue = 39300.0", fillcolor="#e5813901"] ;
7 -> 8 ;
9 [label="mse = 0.0\nsamples = 1\nvalue = 37900.0", fillcolor="#e5813901"] ;
7 -> 9 ;
10 [label="mse = 0.0\nsamples = 1\nvalue = 35311.0", fillcolor="#e5813900"] ;
6 -> 10 ;
11 [label="TotRmsAbvGrd <= 5.5\nmse = 297488919.67\nsamples = 11\nvalue = 76894.74", fillcolor="#e581390f"] ;
5 -> 11 ;
12 [label="BsmtUnfSF <= 132.0\nmse = 47275510.2\nsamples = 5\nvalue = 58285.71", fillcolor="#e5813908"] ;
11 -> 12 ;
13 [label="mse = 0.0\nsamples = 1\nvalue = 72500.0", fillcolor="#e581390d"] ;
12 -> 13 ;
14 [label="ExterQual_Gd <= 0.5\nmse = 15868055.56\nsamples = 4\nvalue = 55916.67", fillcolor="#e5813907"] ;
12 -> 14 ;
15 [label="ExterQual_TA <= 0.5\nmse = 1055555.56\nsamples = 3\nvalue = 59833.33", fillcolor="#e5813909"] ;
14 -> 15 ;
16 [label="SaleType_WD <= 0.5\nmse = 250000.0\nsamples = 2\nvalue = 60500.0", fillcolor="#e5813909"] ;
15 -> 16 ;
17 [label="mse = 0.0\nsamples = 1\nvalue = 60000.0", fillcolor="#e5813909"] ;
16 -> 17 ;
18 [label="mse = 0.0\nsamples = 1\nvalue = 61000.0", fillcolor="#e5813909"] ;
16 -> 18 ;
19 [label="mse = 0.0\nsamples = 1\nvalue = 58500.0", fillcolor="#e5813908"] ;
15 -> 19 ;
20 [label="mse = 0.0\nsamples = 1\nvalue = 52000.0", fillcolor="#e5813906"] ;
14 -> 20 ;
21 [label="OverallCond <= 6.5\nmse = 123604166.67\nsamples = 6\nvalue = 87750.0", fillcolor="#e5813913"] ;
11 -> 21 ;
22 [label="1stFlrSF <= 967.0\nmse = 31694214.88\nsamples = 5\nvalue = 84818.18", fillcolor="#e5813912"] ;
21 -> 22 ;
23 [label="GarageCond_TA <= 0.5\nmse = 1000000.0\nsamples = 2\nvalue = 80000.0", fillcolor="#e5813910"] ;
22 -> 23 ;
24 [label="mse = 0.0\nsamples = 1\nvalue = 79000.0", fillcolor="#e581390f"] ;
23 -> 24 ;
25 [label="mse = 0.0\nsamples = 1\nvalue = 81000.0", fillcolor="#e5813910"] ;
23 -> 25 ;
26 [label="LotFrontage <= 65.02\nmse = 7240000.0\nsamples = 3\nvalue = 90600.0", fillcolor="#e5813914"] ;
22 -> 26 ;
27 [label="Electrical_FuseF <= 0.5\nmse = 1388888.89\nsamples = 2\nvalue = 92666.67", fillcolor="#e5813914"] ;
26 -> 27 ;
28 [label="mse = 0.0\nsamples = 1\nvalue = 91000.0", fillcolor="#e5813914"] ;
27 -> 28 ;
29 [label="mse = 0.0\nsamples = 1\nvalue = 93500.0", fillcolor="#e5813915"] ;
27 -> 29 ;
30 [label="mse = 0.0\nsamples = 1\nvalue = 87500.0", fillcolor="#e5813912"] ;
26 -> 30 ;
31 [label="mse = 0.0\nsamples = 1\nvalue = 120000.0", fillcolor="#e581391e"] ;
21 -> 31 ;
32 [label="1stFlrSF <= 752.0\nmse = 530656850.0\nsamples = 55\nvalue = 101918.39", fillcolor="#e5813918"] ;
4 -> 32 ;
33 [label="MoSold <= 7.5\nmse = 338091388.89\nsamples = 15\nvalue = 82491.67", fillcolor="#e5813911"] ;
32 -> 33 ;
34 [label="Condition1_Feedr <= 0.5\nmse = 122795155.71\nsamples = 10\nvalue = 74311.76", fillcolor="#e581390e"] ;
33 -> 34 ;
35 [label="MoSold <= 5.5\nmse = 14965155.56\nsamples = 8\nvalue = 78053.33", fillcolor="#e581390f"] ;
34 -> 35 ;
36 [label="Exterior2nd_MetalSd <= 0.5\nmse = 9901224.49\nsamples = 4\nvalue = 74985.71", fillcolor="#e581390e"] ;
35 -> 36 ;
37 [label="LotArea <= 1484.0\nmse = 3118055.56\nsamples = 3\nvalue = 76083.33", fillcolor="#e581390e"] ;
36 -> 37 ;
38 [label="mse = 0.0\nsamples = 1\nvalue = 80000.0", fillcolor="#e5813910"] ;
37 -> 38 ;
39 [label="BsmtUnfSF <= 273.0\nmse = 60000.0\nsamples = 2\nvalue = 75300.0", fillcolor="#e581390e"] ;
37 -> 39 ;
40 [label="mse = 0.0\nsamples = 1\nvalue = 75500.0", fillcolor="#e581390e"] ;
39 -> 40 ;
41 [label="mse = 0.0\nsamples = 1\nvalue = 75000.0", fillcolor="#e581390e"] ;
39 -> 41 ;
42 [label="mse = 0.0\nsamples = 1\nvalue = 68400.0", fillcolor="#e581390c"] ;
36 -> 42 ;
43 [label="YearBuilt <= 1923.0\nmse = 3957343.75\nsamples = 4\nvalue = 80737.5", fillcolor="#e5813910"] ;
35 -> 43 ;
44 [label="mse = 0.0\nsamples = 1\nvalue = 86000.0", fillcolor="#e5813912"] ;
43 -> 44 ;
45 [label="MasVnrArea <= 54.0\nmse = 1224.49\nsamples = 3\nvalue = 79985.71", fillcolor="#e5813910"] ;
43 -> 45 ;
46 [label="mse = 0.0\nsamples = 2\nvalue = 80000.0", fillcolor="#e5813910"] ;
45 -> 46 ;
47 [label="mse = 0.0\nsamples = 1\nvalue = 79900.0", fillcolor="#e5813910"] ;
45 -> 47 ;
48 [label="LandSlope_Gtl <= 0.5\nmse = 39062500.0\nsamples = 2\nvalue = 46250.0", fillcolor="#e5813904"] ;
34 -> 48 ;
49 [label="mse = 0.0\nsamples = 1\nvalue = 52500.0", fillcolor="#e5813906"] ;
48 -> 49 ;
50 [label="mse = 0.0\nsamples = 1\nvalue = 40000.0", fillcolor="#e5813902"] ;
48 -> 50 ;
51 [label="LotArea <= 7335.0\nmse = 303818877.55\nsamples = 5\nvalue = 102357.14", fillcolor="#e5813918"] ;
33 -> 51 ;
52 [label="MSZoning_RM <= 0.5\nmse = 16055555.56\nsamples = 2\nvalue = 85333.33", fillcolor="#e5813912"] ;
51 -> 52 ;
53 [label="mse = 0.0\nsamples = 1\nvalue = 82500.0", fillcolor="#e5813911"] ;
52 -> 53 ;
54 [label="mse = 0.0\nsamples = 1\nvalue = 91000.0", fillcolor="#e5813914"] ;
52 -> 54 ;
55 [label="YrSold <= 2007.0\nmse = 139265625.0\nsamples = 3\nvalue = 115125.0", fillcolor="#e581391c"] ;
51 -> 55 ;
56 [label="mse = 0.0\nsamples = 1\nvalue = 135000.0", fillcolor="#e5813923"] ;
55 -> 56 ;
57 [label="GarageCars <= 0.5\nmse = 10125000.0\nsamples = 2\nvalue = 108500.0", fillcolor="#e581391a"] ;
55 -> 57 ;
58 [label="mse = 0.0\nsamples = 1\nvalue = 106250.0", fillcolor="#e5813919"] ;
57 -> 58 ;
59 [label="mse = 0.0\nsamples = 1\nvalue = 113000.0", fillcolor="#e581391c"] ;
57 -> 59 ;
60 [label="MoSold <= 3.5\nmse = 399516004.21\nsamples = 40\nvalue = 109561.69", fillcolor="#e581391a"] ;
32 -> 60 ;
61 [label="1stFlrSF <= 820.5\nmse = 260691913.6\nsamples = 8\nvalue = 88977.79", fillcolor="#e5813913"] ;
60 -> 61 ;
62 [label="mse = 0.0\nsamples = 1\nvalue = 55000.0", fillcolor="#e5813907"] ;
61 -> 62 ;
63 [label="MasVnrType_BrkFace <= 0.5\nmse = 79656414.35\nsamples = 7\nvalue = 94640.75", fillcolor="#e5813915"] ;
61 -> 63 ;
64 [label="SaleCondition_Abnorml <= 0.5\nmse = 31357682.69\nsamples = 6\nvalue = 91368.9", fillcolor="#e5813914"] ;
63 -> 64 ;
65 [label="LandContour_Lvl <= 0.5\nmse = 14432259.61\nsamples = 4\nvalue = 89239.12", fillcolor="#e5813913"] ;
64 -> 65 ;
66 [label="1stFlrSF <= 1033.5\nmse = 3113460.25\nsamples = 2\nvalue = 91235.5", fillcolor="#e5813914"] ;
65 -> 66 ;
67 [label="mse = 0.0\nsamples = 1\nvalue = 93000.0", fillcolor="#e5813914"] ;
66 -> 67 ;
68 [label="mse = 0.0\nsamples = 1\nvalue = 89471.0", fillcolor="#e5813913"] ;
66 -> 68 ;
69 [label="MSSubClass <= 25.0\nmse = 562500.0\nsamples = 2\nvalue = 83250.0", fillcolor="#e5813911"] ;
65 -> 69 ;
70 [label="mse = 0.0\nsamples = 1\nvalue = 84000.0", fillcolor="#e5813911"] ;
69 -> 70 ;
71 [label="mse = 0.0\nsamples = 1\nvalue = 82500.0", fillcolor="#e5813911"] ;
69 -> 71 ;
72 [label="EnclosedPorch <= 49.0\nmse = 8340544.0\nsamples = 2\nvalue = 99888.0", fillcolor="#e5813917"] ;
64 -> 72 ;
73 [label="mse = 0.0\nsamples = 1\nvalue = 97000.0", fillcolor="#e5813916"] ;
72 -> 73 ;
74 [label="mse = 0.0\nsamples = 1\nvalue = 102776.0", fillcolor="#e5813918"] ;
72 -> 74 ;
75 [label="mse = 0.0\nsamples = 1\nvalue = 111000.0", fillcolor="#e581391b"] ;
63 -> 75 ;
76 [label="BsmtFinType1_GLQ <= 0.5\nmse = 277066464.49\nsamples = 32\nvalue = 115693.06", fillcolor="#e581391c"] ;
60 -> 76 ;
77 [label="GarageCond_TA <= 0.5\nmse = 185507599.34\nsamples = 30\nvalue = 113701.64", fillcolor="#e581391c"] ;
76 -> 77 ;
78 [label="TotalBsmtSF <= 943.5\nmse = 49450900.0\nsamples = 7\nvalue = 99390.0", fillcolor="#e5813917"] ;
77 -> 78 ;
79 [label="LandContour_Bnk <= 0.5\nmse = 24862469.14\nsamples = 6\nvalue = 97655.56", fillcolor="#e5813916"] ;
78 -> 79 ;
80 [label="TotalBsmtSF <= 608.5\nmse = 7191875.0\nsamples = 5\nvalue = 99175.0", fillcolor="#e5813917"] ;
79 -> 80 ;
81 [label="Exterior2nd_CmentBd <= 0.5\nmse = 62500.0\nsamples = 2\nvalue = 96750.0", fillcolor="#e5813916"] ;
80 -> 81 ;
82 [label="mse = 0.0\nsamples = 1\nvalue = 96500.0", fillcolor="#e5813916"] ;
81 -> 82 ;
83 [label="mse = 0.0\nsamples = 1\nvalue = 97000.0", fillcolor="#e5813916"] ;
81 -> 83 ;
84 [label="HouseStyle_1Story <= 0.5\nmse = 2560000.0\nsamples = 3\nvalue = 101600.0", fillcolor="#e5813917"] ;
80 -> 84 ;
85 [label="mse = 0.0\nsamples = 1\nvalue = 103200.0", fillcolor="#e5813918"] ;
84 -> 85 ;
86 [label="mse = 0.0\nsamples = 2\nvalue = 100000.0", fillcolor="#e5813917"] ;
84 -> 86 ;
87 [label="mse = 0.0\nsamples = 1\nvalue = 85500.0", fillcolor="#e5813912"] ;
79 -> 87 ;
88 [label="mse = 0.0\nsamples = 1\nvalue = 115000.0", fillcolor="#e581391c"] ;
78 -> 88 ;
89 [label="PavedDrive_P <= 0.5\nmse = 149139778.73\nsamples = 23\nvalue = 117790.69", fillcolor="#e581391d"] ;
77 -> 89 ;
90 [label="MoSold <= 6.5\nmse = 116067144.4\nsamples = 21\nvalue = 119786.69", fillcolor="#e581391e"] ;
89 -> 90 ;
91 [label="YearRemodAdd <= 1960.5\nmse = 96689208.98\nsamples = 11\nvalue = 126296.88", fillcolor="#e5813920"] ;
90 -> 91 ;
92 [label="Electrical_FuseA <= 0.5\nmse = 5167968.75\nsamples = 3\nvalue = 139687.5", fillcolor="#e5813925"] ;
91 -> 92 ;
93 [label="mse = 0.0\nsamples = 2\nvalue = 141000.0", fillcolor="#e5813925"] ;
92 -> 93 ;
94 [label="mse = 0.0\nsamples = 1\nvalue = 135750.0", fillcolor="#e5813924"] ;
92 -> 94 ;
95 [label="WoodDeckSF <= 32.0\nmse = 47503472.22\nsamples = 8\nvalue = 121833.33", fillcolor="#e581391f"] ;
91 -> 95 ;
96 [label="BsmtFullBath <= 0.5\nmse = 11359375.0\nsamples = 5\nvalue = 126125.0", fillcolor="#e5813920"] ;
95 -> 96 ;
97 [label="Exterior1st_MetalSd <= 0.5\nmse = 1388888.89\nsamples = 2\nvalue = 122166.67", fillcolor="#e581391f"] ;
96 -> 97 ;
98 [label="mse = 0.0\nsamples = 1\nvalue = 120500.0", fillcolor="#e581391e"] ;
97 -> 98 ;
99 [label="mse = 0.0\nsamples = 1\nvalue = 123000.0", fillcolor="#e581391f"] ;
97 -> 99 ;
100 [label="TotRmsAbvGrd <= 6.5\nmse = 2300000.0\nsamples = 3\nvalue = 128500.0", fillcolor="#e5813921"] ;
96 -> 100 ;
101 [label="BedroomAbvGr <= 2.5\nmse = 62500.0\nsamples = 2\nvalue = 129250.0", fillcolor="#e5813921"] ;
100 -> 101 ;
102 [label="mse = 0.0\nsamples = 1\nvalue = 129500.0", fillcolor="#e5813921"] ;
101 -> 102 ;
103 [label="mse = 0.0\nsamples = 1\nvalue = 129000.0", fillcolor="#e5813921"] ;
101 -> 103 ;
104 [label="mse = 0.0\nsamples = 1\nvalue = 125500.0", fillcolor="#e5813920"] ;
100 -> 104 ;
105 [label="BsmtFinType1_Rec <= 0.5\nmse = 9281250.0\nsamples = 3\nvalue = 113250.0", fillcolor="#e581391c"] ;
95 -> 105 ;
106 [label="GrLivArea <= 1105.0\nmse = 125000.0\nsamples = 2\nvalue = 111500.0", fillcolor="#e581391b"] ;
105 -> 106 ;
107 [label="mse = 0.0\nsamples = 1\nvalue = 111250.0", fillcolor="#e581391b"] ;
106 -> 107 ;
108 [label="mse = 0.0\nsamples = 1\nvalue = 112000.0", fillcolor="#e581391b"] ;
106 -> 108 ;
109 [label="mse = 0.0\nsamples = 1\nvalue = 118500.0", fillcolor="#e581391d"] ;
105 -> 109 ;
110 [label="GarageYrBlt <= 1948.0\nmse = 50679997.25\nsamples = 10\nvalue = 113276.5", fillcolor="#e581391c"] ;
90 -> 110 ;
111 [label="MSZoning_RM <= 0.5\nmse = 9102222.22\nsamples = 2\nvalue = 125866.67", fillcolor="#e5813920"] ;
110 -> 111 ;
112 [label="mse = 0.0\nsamples = 1\nvalue = 121600.0", fillcolor="#e581391f"] ;
111 -> 112 ;
113 [label="mse = 0.0\nsamples = 1\nvalue = 128000.0", fillcolor="#e5813921"] ;
111 -> 113 ;
114 [label="GarageArea <= 280.5\nmse = 15253624.38\nsamples = 8\nvalue = 110371.08", fillcolor="#e581391b"] ;
110 -> 114 ;
115 [label="BsmtFinSF1 <= 366.0\nmse = 1933888.89\nsamples = 2\nvalue = 117033.33", fillcolor="#e581391d"] ;
114 -> 115 ;
116 [label="mse = 0.0\nsamples = 1\nvalue = 116050.0", fillcolor="#e581391d"] ;
115 -> 116 ;
117 [label="mse = 0.0\nsamples = 1\nvalue = 119000.0", fillcolor="#e581391e"] ;
115 -> 117 ;
118 [label="MoSold <= 9.0\nmse = 1939137.44\nsamples = 6\nvalue = 108372.4", fillcolor="#e581391a"] ;
114 -> 118 ;
119 [label="BsmtCond_TA <= 0.5\nmse = 415083.75\nsamples = 4\nvalue = 108965.5", fillcolor="#e581391a"] ;
118 -> 119 ;
120 [label="mse = 0.0\nsamples = 1\nvalue = 109900.0", fillcolor="#e581391a"] ;
119 -> 120 ;
121 [label="BedroomAbvGr <= 2.5\nmse = 165316.0\nsamples = 3\nvalue = 108654.0", fillcolor="#e581391a"] ;
119 -> 121 ;
122 [label="MoSold <= 7.5\nmse = 80000.0\nsamples = 2\nvalue = 108300.0", fillcolor="#e581391a"] ;
121 -> 122 ;
123 [label="mse = 0.0\nsamples = 1\nvalue = 108500.0", fillcolor="#e581391a"] ;
122 -> 123 ;
124 [label="mse = 0.0\nsamples = 1\nvalue = 107900.0", fillcolor="#e581391a"] ;
122 -> 124 ;
125 [label="mse = 0.0\nsamples = 1\nvalue = 109008.0", fillcolor="#e581391a"] ;
121 -> 125 ;
126 [label="YrSold <= 2007.5\nmse = 1000000.0\nsamples = 2\nvalue = 106000.0", fillcolor="#e5813919"] ;
118 -> 126 ;
127 [label="mse = 0.0\nsamples = 1\nvalue = 107000.0", fillcolor="#e5813919"] ;
126 -> 127 ;
128 [label="mse = 0.0\nsamples = 1\nvalue = 105000.0", fillcolor="#e5813919"] ;
126 -> 128 ;
129 [label="GarageFinish_Fin <= 0.5\nmse = 6125000.0\nsamples = 2\nvalue = 96500.0", fillcolor="#e5813916"] ;
89 -> 129 ;
130 [label="mse = 0.0\nsamples = 1\nvalue = 100000.0", fillcolor="#e5813917"] ;
129 -> 130 ;
131 [label="mse = 0.0\nsamples = 1\nvalue = 94750.0", fillcolor="#e5813915"] ;
129 -> 131 ;
132 [label="GarageYrBlt <= 1985.0\nmse = 240250000.0\nsamples = 2\nvalue = 160500.0", fillcolor="#e581392c"] ;
76 -> 132 ;
133 [label="mse = 0.0\nsamples = 1\nvalue = 145000.0", fillcolor="#e5813927"] ;
132 -> 133 ;
134 [label="mse = 0.0\nsamples = 1\nvalue = 176000.0", fillcolor="#e5813932"] ;
132 -> 134 ;
135 [label="GarageArea <= 366.5\nmse = 486358357.81\nsamples = 233\nvalue = 126823.34", fillcolor="#e5813920"] ;
3 -> 135 ;
136 [label="LotArea <= 6411.0\nmse = 405367109.29\nsamples = 125\nvalue = 116239.62", fillcolor="#e581391d"] ;
135 -> 136 ;
137 [label="Condition1_Norm <= 0.5\nmse = 252167023.18\nsamples = 35\nvalue = 101199.21", fillcolor="#e5813917"] ;
136 -> 137 ;
138 [label="1stFlrSF <= 728.0\nmse = 105131875.0\nsamples = 6\nvalue = 82575.0", fillcolor="#e5813911"] ;
137 -> 138 ;
139 [label="mse = 0.0\nsamples = 1\nvalue = 66500.0", fillcolor="#e581390b"] ;
138 -> 139 ;
140 [label="SaleType_WD <= 0.5\nmse = 25328888.89\nsamples = 5\nvalue = 87933.33", fillcolor="#e5813913"] ;
138 -> 140 ;
141 [label="mse = 0.0\nsamples = 1\nvalue = 79900.0", fillcolor="#e5813910"] ;
140 -> 141 ;
142 [label="HouseStyle_1.5Unf <= 0.5\nmse = 8859183.67\nsamples = 4\nvalue = 90228.57", fillcolor="#e5813913"] ;
140 -> 142 ;
143 [label="MoSold <= 8.5\nmse = 1822500.0\nsamples = 2\nvalue = 92650.0", fillcolor="#e5813914"] ;
142 -> 143 ;
144 [label="mse = 0.0\nsamples = 1\nvalue = 94000.0", fillcolor="#e5813915"] ;
143 -> 144 ;
145 [label="mse = 0.0\nsamples = 1\nvalue = 91300.0", fillcolor="#e5813914"] ;
143 -> 145 ;
146 [label="mse = 0.0\nsamples = 2\nvalue = 87000.0", fillcolor="#e5813912"] ;
142 -> 146 ;
147 [label="1stFlrSF <= 606.0\nmse = 185945780.47\nsamples = 29\nvalue = 105581.37", fillcolor="#e5813919"] ;
137 -> 147 ;
148 [label="OverallCond <= 5.5\nmse = 129674674.56\nsamples = 8\nvalue = 90261.54", fillcolor="#e5813913"] ;
147 -> 148 ;
149 [label="LotArea <= 1816.5\nmse = 45164462.81\nsamples = 6\nvalue = 86309.09", fillcolor="#e5813912"] ;
148 -> 149 ;
150 [label="SaleType_WD <= 0.5\nmse = 27455000.0\nsamples = 3\nvalue = 93600.0", fillcolor="#e5813915"] ;
149 -> 150 ;
151 [label="mse = 0.0\nsamples = 1\nvalue = 85400.0", fillcolor="#e5813912"] ;
150 -> 151 ;
152 [label="BsmtFinType1_Unf <= 0.5\nmse = 6722222.22\nsamples = 2\nvalue = 96333.33", fillcolor="#e5813916"] ;
150 -> 152 ;
153 [label="mse = 0.0\nsamples = 1\nvalue = 100000.0", fillcolor="#e5813917"] ;
152 -> 153 ;
154 [label="mse = 0.0\nsamples = 1\nvalue = 94500.0", fillcolor="#e5813915"] ;
152 -> 154 ;
155 [label="BsmtExposure_No <= 0.5\nmse = 7551020.41\nsamples = 3\nvalue = 82142.86", fillcolor="#e5813911"] ;
149 -> 155 ;
156 [label="mse = 0.0\nsamples = 1\nvalue = 78000.0", fillcolor="#e581390f"] ;
155 -> 156 ;
157 [label="BsmtQual_TA <= 0.5\nmse = 960000.0\nsamples = 2\nvalue = 83800.0", fillcolor="#e5813911"] ;
155 -> 157 ;
158 [label="mse = 0.0\nsamples = 1\nvalue = 85000.0", fillcolor="#e5813912"] ;
157 -> 158 ;
159 [label="mse = 0.0\nsamples = 1\nvalue = 83000.0", fillcolor="#e5813911"] ;
157 -> 159 ;
160 [label="OverallCond <= 7.0\nmse = 36000000.0\nsamples = 2\nvalue = 112000.0", fillcolor="#e581391b"] ;
148 -> 160 ;
161 [label="mse = 0.0\nsamples = 1\nvalue = 106000.0", fillcolor="#e5813919"] ;
160 -> 161 ;
162 [label="mse = 0.0\nsamples = 1\nvalue = 118000.0", fillcolor="#e581391d"] ;
160 -> 162 ;
163 [label="GarageArea <= 194.0\nmse = 97437197.02\nsamples = 21\nvalue = 110822.37", fillcolor="#e581391b"] ;
147 -> 163 ;
164 [label="BsmtQual_TA <= 0.5\nmse = 58239669.42\nsamples = 6\nvalue = 100318.18", fillcolor="#e5813917"] ;
163 -> 164 ;
165 [label="MSZoning_RL <= 0.5\nmse = 187500.0\nsamples = 2\nvalue = 91750.0", fillcolor="#e5813914"] ;
164 -> 165 ;
166 [label="mse = 0.0\nsamples = 1\nvalue = 92000.0", fillcolor="#e5813914"] ;
165 -> 166 ;
167 [label="mse = 0.0\nsamples = 1\nvalue = 91000.0", fillcolor="#e5813914"] ;
165 -> 167 ;
168 [label="MoSold <= 4.5\nmse = 25489795.92\nsamples = 4\nvalue = 105214.29", fillcolor="#e5813919"] ;
164 -> 168 ;
169 [label="mse = 0.0\nsamples = 1\nvalue = 98000.0", fillcolor="#e5813916"] ;
168 -> 169 ;
170 [label="GarageFinish_Unf <= 0.5\nmse = 6540000.0\nsamples = 3\nvalue = 108100.0", fillcolor="#e581391a"] ;
168 -> 170 ;
171 [label="HouseStyle_1.5Unf <= 0.5\nmse = 222222.22\nsamples = 2\nvalue = 110166.67", fillcolor="#e581391b"] ;
170 -> 171 ;
172 [label="mse = 0.0\nsamples = 1\nvalue = 110500.0", fillcolor="#e581391b"] ;
171 -> 172 ;
173 [label="mse = 0.0\nsamples = 1\nvalue = 109500.0", fillcolor="#e581391a"] ;
171 -> 173 ;
174 [label="mse = 0.0\nsamples = 1\nvalue = 105000.0", fillcolor="#e5813919"] ;
170 -> 174 ;
175 [label="BedroomAbvGr <= 3.5\nmse = 50140089.16\nsamples = 15\nvalue = 115101.85", fillcolor="#e581391c"] ;
163 -> 175 ;
176 [label="MSSubClass <= 175.0\nmse = 27998400.0\nsamples = 14\nvalue = 113710.0", fillcolor="#e581391c"] ;
175 -> 176 ;
177 [label="OpenPorchSF <= 31.5\nmse = 10549370.66\nsamples = 13\nvalue = 114572.92", fillcolor="#e581391c"] ;
176 -> 177 ;
178 [label="OverallCond <= 6.5\nmse = 7435302.73\nsamples = 10\nvalue = 115921.88", fillcolor="#e581391d"] ;
177 -> 178 ;
179 [label="BsmtUnfSF <= 573.0\nmse = 1500000.0\nsamples = 5\nvalue = 113500.0", fillcolor="#e581391c"] ;
178 -> 179 ;
180 [label="MasVnrType_BrkFace <= 0.5\nmse = 750000.0\nsamples = 3\nvalue = 114500.0", fillcolor="#e581391c"] ;
179 -> 180 ;
181 [label="mse = 0.0\nsamples = 2\nvalue = 115000.0", fillcolor="#e581391c"] ;
180 -> 181 ;
182 [label="mse = 0.0\nsamples = 1\nvalue = 113000.0", fillcolor="#e581391c"] ;
180 -> 182 ;
183 [label="Foundation_CBlock <= 0.5\nmse = 250000.0\nsamples = 2\nvalue = 112500.0", fillcolor="#e581391b"] ;
179 -> 183 ;
184 [label="mse = 0.0\nsamples = 1\nvalue = 113000.0", fillcolor="#e581391c"] ;
183 -> 184 ;
185 [label="mse = 0.0\nsamples = 1\nvalue = 112000.0", fillcolor="#e581391b"] ;
183 -> 185 ;
186 [label="GarageType_Detchd <= 0.5\nmse = 1639648.44\nsamples = 5\nvalue = 118343.75", fillcolor="#e581391d"] ;
178 -> 186 ;
187 [label="YearBuilt <= 1933.5\nmse = 13888.89\nsamples = 2\nvalue = 119916.67", fillcolor="#e581391e"] ;
186 -> 187 ;
188 [label="mse = 0.0\nsamples = 1\nvalue = 120000.0", fillcolor="#e581391e"] ;
187 -> 188 ;
189 [label="mse = 0.0\nsamples = 1\nvalue = 119750.0", fillcolor="#e581391e"] ;
187 -> 189 ;
190 [label="LotFrontage <= 35.5\nmse = 240000.0\nsamples = 3\nvalue = 117400.0", fillcolor="#e581391d"] ;
186 -> 190 ;
191 [label="mse = 0.0\nsamples = 1\nvalue = 118000.0", fillcolor="#e581391d"] ;
190 -> 191 ;
192 [label="mse = 0.0\nsamples = 2\nvalue = 117000.0", fillcolor="#e581391d"] ;
190 -> 192 ;
193 [label="Neighborhood_BrkSide <= 0.5\nmse = 5859375.0\nsamples = 3\nvalue = 111875.0", fillcolor="#e581391b"] ;
177 -> 193 ;
194 [label="mse = 0.0\nsamples = 2\nvalue = 110000.0", fillcolor="#e581391a"] ;
193 -> 194 ;
195 [label="mse = 0.0\nsamples = 1\nvalue = 115000.0", fillcolor="#e581391c"] ;
193 -> 195 ;
196 [label="mse = 0.0\nsamples = 1\nvalue = 93000.0", fillcolor="#e5813914"] ;
176 -> 196 ;
197 [label="mse = 0.0\nsamples = 1\nvalue = 132500.0", fillcolor="#e5813922"] ;
175 -> 197 ;
198 [label="BsmtUnfSF <= 736.5\nmse = 334053807.71\nsamples = 90\nvalue = 122598.99", fillcolor="#e581391f"] ;
136 -> 198 ;
199 [label="2ndFlrSF <= 680.5\nmse = 258405553.99\nsamples = 74\nvalue = 126697.08", fillcolor="#e5813920"] ;
198 -> 199 ;
200 [label="1stFlrSF <= 929.0\nmse = 207676489.88\nsamples = 71\nvalue = 124904.82", fillcolor="#e5813920"] ;
199 -> 200 ;
201 [label="OverallCond <= 5.5\nmse = 198269547.93\nsamples = 40\nvalue = 119724.62", fillcolor="#e581391e"] ;
200 -> 201 ;
202 [label="BsmtFinSF1 <= 501.0\nmse = 164895061.73\nsamples = 11\nvalue = 107277.78", fillcolor="#e5813919"] ;
201 -> 202 ;
203 [label="GarageQual_Fa <= 0.5\nmse = 91040000.0\nsamples = 6\nvalue = 98400.0", fillcolor="#e5813916"] ;
202 -> 203 ;
204 [label="Exterior1st_Wd Sdng <= 0.5\nmse = 29265306.12\nsamples = 4\nvalue = 103857.14", fillcolor="#e5813918"] ;
203 -> 204 ;
205 [label="BsmtFinType1_Rec <= 0.5\nmse = 10000000.0\nsamples = 3\nvalue = 102000.0", fillcolor="#e5813918"] ;
204 -> 205 ;
206 [label="YearRemodAdd <= 1961.5\nmse = 2000000.0\nsamples = 2\nvalue = 99000.0", fillcolor="#e5813917"] ;
205 -> 206 ;
207 [label="mse = 0.0\nsamples = 1\nvalue = 97000.0", fillcolor="#e5813916"] ;
206 -> 207 ;
208 [label="mse = 0.0\nsamples = 1\nvalue = 100000.0", fillcolor="#e5813917"] ;
206 -> 208 ;
209 [label="mse = 0.0\nsamples = 1\nvalue = 105000.0", fillcolor="#e5813919"] ;
205 -> 209 ;
210 [label="mse = 0.0\nsamples = 1\nvalue = 115000.0", fillcolor="#e581391c"] ;
204 -> 210 ;
211 [label="MSZoning_RL <= 0.5\nmse = 3555555.56\nsamples = 2\nvalue = 85666.67", fillcolor="#e5813912"] ;
203 -> 211 ;
212 [label="mse = 0.0\nsamples = 1\nvalue = 87000.0", fillcolor="#e5813912"] ;
211 -> 212 ;
213 [label="mse = 0.0\nsamples = 1\nvalue = 83000.0", fillcolor="#e5813911"] ;
211 -> 213 ;
214 [label="HeatingQC_TA <= 0.5\nmse = 35546875.0\nsamples = 5\nvalue = 118375.0", fillcolor="#e581391d"] ;
202 -> 214 ;
215 [label="YrSold <= 2008.5\nmse = 888888.89\nsamples = 2\nvalue = 111333.33", fillcolor="#e581391b"] ;
214 -> 215 ;
216 [label="mse = 0.0\nsamples = 1\nvalue = 110000.0", fillcolor="#e581391a"] ;
215 -> 216 ;
217 [label="mse = 0.0\nsamples = 1\nvalue = 112000.0", fillcolor="#e581391b"] ;
215 -> 217 ;
218 [label="BsmtFinType2_LwQ <= 0.5\nmse = 8740000.0\nsamples = 3\nvalue = 122600.0", fillcolor="#e581391f"] ;
214 -> 218 ;
219 [label="GarageCond_TA <= 0.5\nmse = 250000.0\nsamples = 2\nvalue = 119000.0", fillcolor="#e581391e"] ;
218 -> 219 ;
220 [label="mse = 0.0\nsamples = 1\nvalue = 118500.0", fillcolor="#e581391d"] ;
219 -> 220 ;
221 [label="mse = 0.0\nsamples = 1\nvalue = 119500.0", fillcolor="#e581391e"] ;
219 -> 221 ;
222 [label="mse = 0.0\nsamples = 1\nvalue = 125000.0", fillcolor="#e5813920"] ;
218 -> 222 ;
223 [label="Condition1_Artery <= 0.5\nmse = 128995672.25\nsamples = 29\nvalue = 124491.49", fillcolor="#e5813920"] ;
201 -> 223 ;
224 [label="LotConfig_FR2 <= 0.5\nmse = 95561007.23\nsamples = 27\nvalue = 126111.36", fillcolor="#e5813920"] ;
223 -> 224 ;
225 [label="GarageArea <= 302.5\nmse = 72464497.32\nsamples = 25\nvalue = 124780.49", fillcolor="#e5813920"] ;
224 -> 225 ;
226 [label="TotRmsAbvGrd <= 4.5\nmse = 48050535.08\nsamples = 18\nvalue = 121534.48", fillcolor="#e581391f"] ;
225 -> 226 ;
227 [label="1stFlrSF <= 685.0\nmse = 17111570.25\nsamples = 5\nvalue = 116454.55", fillcolor="#e581391d"] ;
226 -> 227 ;
228 [label="mse = 0.0\nsamples = 1\nvalue = 108000.0", fillcolor="#e581391a"] ;
227 -> 228 ;
229 [label="GarageType_Attchd <= 0.5\nmse = 1500000.0\nsamples = 4\nvalue = 118333.33", fillcolor="#e581391d"] ;
227 -> 229 ;
230 [label="Exterior1st_Wd Sdng <= 0.5\nmse = 540000.0\nsamples = 2\nvalue = 117400.0", fillcolor="#e581391d"] ;
229 -> 230 ;
231 [label="mse = 0.0\nsamples = 1\nvalue = 118000.0", fillcolor="#e581391d"] ;
230 -> 231 ;
232 [label="mse = 0.0\nsamples = 1\nvalue = 116500.0", fillcolor="#e581391d"] ;
230 -> 232 ;
233 [label="HeatingQC_Ex <= 0.5\nmse = 250000.0\nsamples = 2\nvalue = 119500.0", fillcolor="#e581391e"] ;
229 -> 233 ;
234 [label="mse = 0.0\nsamples = 1\nvalue = 119000.0", fillcolor="#e581391e"] ;
233 -> 234 ;
235 [label="mse = 0.0\nsamples = 1\nvalue = 120000.0", fillcolor="#e581391e"] ;
233 -> 235 ;
236 [label="2ndFlrSF <= 479.5\nmse = 41550154.32\nsamples = 13\nvalue = 124638.89", fillcolor="#e5813920"] ;
226 -> 236 ;
237 [label="TotalBsmtSF <= 888.0\nmse = 10322314.05\nsamples = 8\nvalue = 128136.36", fillcolor="#e5813921"] ;
236 -> 237 ;
238 [label="YrSold <= 2007.5\nmse = 4072500.0\nsamples = 7\nvalue = 128950.0", fillcolor="#e5813921"] ;
237 -> 238 ;
239 [label="LotArea <= 8937.0\nmse = 2921875.0\nsamples = 3\nvalue = 126875.0", fillcolor="#e5813920"] ;
238 -> 239 ;
240 [label="GarageYrBlt <= 1961.0\nmse = 562500.0\nsamples = 2\nvalue = 125250.0", fillcolor="#e5813920"] ;
239 -> 240 ;
241 [label="mse = 0.0\nsamples = 1\nvalue = 126000.0", fillcolor="#e5813920"] ;
240 -> 241 ;
242 [label="mse = 0.0\nsamples = 1\nvalue = 124500.0", fillcolor="#e5813920"] ;
240 -> 242 ;
243 [label="mse = 0.0\nsamples = 1\nvalue = 128500.0", fillcolor="#e5813921"] ;
239 -> 243 ;
244 [label="GarageFinish_Unf <= 0.5\nmse = 55555.56\nsamples = 4\nvalue = 130333.33", fillcolor="#e5813922"] ;
238 -> 244 ;
245 [label="mse = 0.0\nsamples = 2\nvalue = 130000.0", fillcolor="#e5813922"] ;
244 -> 245 ;
246 [label="mse = 0.0\nsamples = 2\nvalue = 130500.0", fillcolor="#e5813922"] ;
244 -> 246 ;
247 [label="mse = 0.0\nsamples = 1\nvalue = 120000.0", fillcolor="#e581391e"] ;
237 -> 247 ;
248 [label="PavedDrive_Y <= 0.5\nmse = 41193877.55\nsamples = 5\nvalue = 119142.86", fillcolor="#e581391e"] ;
236 -> 248 ;
249 [label="BsmtHalfBath <= 0.5\nmse = 16055555.56\nsamples = 2\nvalue = 113166.67", fillcolor="#e581391c"] ;
248 -> 249 ;
250 [label="mse = 0.0\nsamples = 1\nvalue = 107500.0", fillcolor="#e581391a"] ;
249 -> 250 ;
251 [label="mse = 0.0\nsamples = 1\nvalue = 116000.0", fillcolor="#e581391d"] ;
249 -> 251 ;
252 [label="1stFlrSF <= 699.5\nmse = 13171875.0\nsamples = 3\nvalue = 123625.0", fillcolor="#e581391f"] ;
248 -> 252 ;
253 [label="mse = 0.0\nsamples = 1\nvalue = 120000.0", fillcolor="#e581391e"] ;
252 -> 253 ;
254 [label="HeatingQC_TA <= 0.5\nmse = 62500.0\nsamples = 2\nvalue = 127250.0", fillcolor="#e5813921"] ;
252 -> 254 ;
255 [label="mse = 0.0\nsamples = 1\nvalue = 127500.0", fillcolor="#e5813921"] ;
254 -> 255 ;
256 [label="mse = 0.0\nsamples = 1\nvalue = 127000.0", fillcolor="#e5813920"] ;
254 -> 256 ;
257 [label="Neighborhood_Sawyer <= 0.5\nmse = 44465208.33\nsamples = 7\nvalue = 132625.0", fillcolor="#e5813922"] ;
225 -> 257 ;
258 [label="MoSold <= 6.0\nmse = 7123593.75\nsamples = 5\nvalue = 128312.5", fillcolor="#e5813921"] ;
257 -> 258 ;
259 [label="GarageYrBlt <= 1974.5\nmse = 2210400.0\nsamples = 3\nvalue = 126640.0", fillcolor="#e5813920"] ;
258 -> 259 ;
260 [label="mse = 0.0\nsamples = 1\nvalue = 124900.0", fillcolor="#e5813920"] ;
259 -> 260 ;
261 [label="GarageType_Detchd <= 0.5\nmse = 320000.0\nsamples = 2\nvalue = 127800.0", fillcolor="#e5813921"] ;
259 -> 261 ;
262 [label="mse = 0.0\nsamples = 1\nvalue = 128200.0", fillcolor="#e5813921"] ;
261 -> 262 ;
263 [label="mse = 0.0\nsamples = 1\nvalue = 127000.0", fillcolor="#e5813920"] ;
261 -> 263 ;
264 [label="1stFlrSF <= 840.0\nmse = 2880000.0\nsamples = 2\nvalue = 131100.0", fillcolor="#e5813922"] ;
258 -> 264 ;
265 [label="mse = 0.0\nsamples = 1\nvalue = 129900.0", fillcolor="#e5813922"] ;
264 -> 265 ;
266 [label="mse = 0.0\nsamples = 1\nvalue = 133500.0", fillcolor="#e5813923"] ;
264 -> 266 ;
267 [label="BsmtFinType1_ALQ <= 0.5\nmse = 7562500.0\nsamples = 2\nvalue = 141250.0", fillcolor="#e5813926"] ;
257 -> 267 ;
268 [label="mse = 0.0\nsamples = 1\nvalue = 138500.0", fillcolor="#e5813925"] ;
267 -> 268 ;
269 [label="mse = 0.0\nsamples = 1\nvalue = 144000.0", fillcolor="#e5813927"] ;
267 -> 269 ;
270 [label="MasVnrType_BrkFace <= 0.5\nmse = 56180000.0\nsamples = 2\nvalue = 144300.0", fillcolor="#e5813927"] ;
224 -> 270 ;
271 [label="mse = 0.0\nsamples = 1\nvalue = 154900.0", fillcolor="#e581392a"] ;
270 -> 271 ;
272 [label="mse = 0.0\nsamples = 1\nvalue = 139000.0", fillcolor="#e5813925"] ;
270 -> 272 ;
273 [label="MoSold <= 5.0\nmse = 16435555.56\nsamples = 2\nvalue = 100733.33", fillcolor="#e5813917"] ;
223 -> 273 ;
274 [label="mse = 0.0\nsamples = 1\nvalue = 95000.0", fillcolor="#e5813915"] ;
273 -> 274 ;
275 [label="mse = 0.0\nsamples = 1\nvalue = 103600.0", fillcolor="#e5813918"] ;
273 -> 275 ;
276 [label="2ndFlrSF <= 351.5\nmse = 137337867.56\nsamples = 31\nvalue = 131776.53", fillcolor="#e5813922"] ;
200 -> 276 ;
277 [label="SaleCondition_Normal <= 0.5\nmse = 87740726.57\nsamples = 29\nvalue = 133245.74", fillcolor="#e5813923"] ;
276 -> 277 ;
278 [label="YearBuilt <= 1967.0\nmse = 80519506.17\nsamples = 5\nvalue = 122677.78", fillcolor="#e581391f"] ;
277 -> 278 ;
279 [label="OverallCond <= 6.0\nmse = 29702500.0\nsamples = 2\nvalue = 114450.0", fillcolor="#e581391c"] ;
278 -> 279 ;
280 [label="mse = 0.0\nsamples = 1\nvalue = 119900.0", fillcolor="#e581391e"] ;
279 -> 280 ;
281 [label="mse = 0.0\nsamples = 1\nvalue = 109000.0", fillcolor="#e581391a"] ;
279 -> 281 ;
282 [label="MasVnrArea <= 125.0\nmse = 23690400.0\nsamples = 3\nvalue = 129260.0", fillcolor="#e5813921"] ;
278 -> 282 ;
283 [label="mse = 0.0\nsamples = 1\nvalue = 138800.0", fillcolor="#e5813925"] ;
282 -> 283 ;
284 [label="TotalBsmtSF <= 993.0\nmse = 1171875.0\nsamples = 2\nvalue = 126875.0", fillcolor="#e5813920"] ;
282 -> 284 ;
285 [label="mse = 0.0\nsamples = 1\nvalue = 127500.0", fillcolor="#e5813921"] ;
284 -> 285 ;
286 [label="mse = 0.0\nsamples = 1\nvalue = 125000.0", fillcolor="#e5813920"] ;
284 -> 286 ;
287 [label="ExterQual_TA <= 0.5\nmse = 56735327.22\nsamples = 24\nvalue = 135748.68", fillcolor="#e5813924"] ;
277 -> 287 ;
288 [label="mse = 0.0\nsamples = 1\nvalue = 160000.0", fillcolor="#e581392c"] ;
287 -> 288 ;
289 [label="TotalBsmtSF <= 1053.0\nmse = 41943805.7\nsamples = 23\nvalue = 135093.24", fillcolor="#e5813923"] ;
287 -> 289 ;
290 [label="LotArea <= 7324.5\nmse = 30171315.1\nsamples = 14\nvalue = 132606.25", fillcolor="#e5813922"] ;
289 -> 290 ;
291 [label="GarageYrBlt <= 1951.0\nmse = 5062500.0\nsamples = 2\nvalue = 121250.0", fillcolor="#e581391e"] ;
290 -> 291 ;
292 [label="mse = 0.0\nsamples = 1\nvalue = 119000.0", fillcolor="#e581391e"] ;
291 -> 292 ;
293 [label="mse = 0.0\nsamples = 1\nvalue = 123500.0", fillcolor="#e581391f"] ;
291 -> 293 ;
294 [label="BsmtQual_Gd <= 0.5\nmse = 19664075.41\nsamples = 12\nvalue = 133638.64", fillcolor="#e5813923"] ;
290 -> 294 ;
295 [label="YrSold <= 2008.0\nmse = 9220277.78\nsamples = 9\nvalue = 135183.33", fillcolor="#e5813923"] ;
294 -> 295 ;
296 [label="BsmtFinSF1 <= 573.0\nmse = 4196213.02\nsamples = 5\nvalue = 136661.54", fillcolor="#e5813924"] ;
295 -> 296 ;
297 [label="HouseStyle_1Story <= 0.5\nmse = 1410612.24\nsamples = 2\nvalue = 138371.43", fillcolor="#e5813925"] ;
296 -> 297 ;
298 [label="mse = 0.0\nsamples = 1\nvalue = 139400.0", fillcolor="#e5813925"] ;
297 -> 298 ;
299 [label="mse = 0.0\nsamples = 1\nvalue = 137000.0", fillcolor="#e5813924"] ;
297 -> 299 ;
300 [label="1stFlrSF <= 1028.0\nmse = 55555.56\nsamples = 3\nvalue = 134666.67", fillcolor="#e5813923"] ;
296 -> 300 ;
301 [label="mse = 0.0\nsamples = 2\nvalue = 134500.0", fillcolor="#e5813923"] ;
300 -> 301 ;
302 [label="mse = 0.0\nsamples = 1\nvalue = 135000.0", fillcolor="#e5813923"] ;
300 -> 302 ;
303 [label="HeatingQC_Gd <= 0.5\nmse = 1830400.0\nsamples = 4\nvalue = 131340.0", fillcolor="#e5813922"] ;
295 -> 303 ;
304 [label="TotalBsmtSF <= 1006.0\nmse = 427500.0\nsamples = 3\nvalue = 131950.0", fillcolor="#e5813922"] ;
303 -> 304 ;
305 [label="Exterior1st_HdBoard <= 0.5\nmse = 80000.0\nsamples = 2\nvalue = 131600.0", fillcolor="#e5813922"] ;
304 -> 305 ;
306 [label="mse = 0.0\nsamples = 1\nvalue = 132000.0", fillcolor="#e5813922"] ;
305 -> 306 ;
307 [label="mse = 0.0\nsamples = 1\nvalue = 131400.0", fillcolor="#e5813922"] ;
305 -> 307 ;
308 [label="mse = 0.0\nsamples = 1\nvalue = 133000.0", fillcolor="#e5813923"] ;
304 -> 308 ;
309 [label="mse = 0.0\nsamples = 1\nvalue = 128900.0", fillcolor="#e5813921"] ;
303 -> 309 ;
310 [label="LotFrontage <= 64.5\nmse = 7605468.75\nsamples = 3\nvalue = 126687.5", fillcolor="#e5813920"] ;
294 -> 310 ;
311 [label="mse = 0.0\nsamples = 1\nvalue = 124000.0", fillcolor="#e581391f"] ;
310 -> 311 ;
312 [label="HalfBath <= 0.5\nmse = 765625.0\nsamples = 2\nvalue = 129375.0", fillcolor="#e5813921"] ;
310 -> 312 ;
313 [label="mse = 0.0\nsamples = 1\nvalue = 130250.0", fillcolor="#e5813922"] ;
312 -> 313 ;
314 [label="mse = 0.0\nsamples = 1\nvalue = 128500.0", fillcolor="#e5813921"] ;
312 -> 314 ;
315 [label="Neighborhood_Sawyer <= 0.5\nmse = 31178224.85\nsamples = 9\nvalue = 139684.62", fillcolor="#e5813925"] ;
289 -> 315 ;
316 [label="BsmtFinSF1 <= 417.0\nmse = 13960833.33\nsamples = 8\nvalue = 138450.0", fillcolor="#e5813925"] ;
315 -> 316 ;
317 [label="mse = 0.0\nsamples = 1\nvalue = 128000.0", fillcolor="#e5813921"] ;
316 -> 317 ;
318 [label="RoofStyle_Gable <= 0.5\nmse = 4400000.0\nsamples = 7\nvalue = 139400.0", fillcolor="#e5813925"] ;
316 -> 318 ;
319 [label="TotalBsmtSF <= 1089.0\nmse = 250000.0\nsamples = 2\nvalue = 135500.0", fillcolor="#e5813923"] ;
318 -> 319 ;
320 [label="mse = 0.0\nsamples = 1\nvalue = 136000.0", fillcolor="#e5813924"] ;
319 -> 320 ;
321 [label="mse = 0.0\nsamples = 1\nvalue = 135000.0", fillcolor="#e5813923"] ;
319 -> 321 ;
322 [label="LotFrontage <= 69.5\nmse = 1191111.11\nsamples = 5\nvalue = 140266.67", fillcolor="#e5813925"] ;
318 -> 322 ;
323 [label="EnclosedPorch <= 92.0\nmse = 160000.0\nsamples = 3\nvalue = 141200.0", fillcolor="#e5813926"] ;
322 -> 323 ;
324 [label="mse = 0.0\nsamples = 2\nvalue = 141000.0", fillcolor="#e5813925"] ;
323 -> 324 ;
325 [label="mse = 0.0\nsamples = 1\nvalue = 142000.0", fillcolor="#e5813926"] ;
323 -> 325 ;
326 [label="GarageArea <= 284.0\nmse = 30000.0\nsamples = 2\nvalue = 139100.0", fillcolor="#e5813925"] ;
322 -> 326 ;
327 [label="mse = 0.0\nsamples = 1\nvalue = 139400.0", fillcolor="#e5813925"] ;
326 -> 327 ;
328 [label="mse = 0.0\nsamples = 1\nvalue = 139000.0", fillcolor="#e5813925"] ;
326 -> 328 ;
329 [label="mse = 0.0\nsamples = 1\nvalue = 154500.0", fillcolor="#e581392a"] ;
315 -> 329 ;
330 [label="2ndFlrSF <= 389.5\nmse = 60062500.0\nsamples = 2\nvalue = 97250.0", fillcolor="#e5813916"] ;
276 -> 330 ;
331 [label="mse = 0.0\nsamples = 1\nvalue = 89500.0", fillcolor="#e5813913"] ;
330 -> 331 ;
332 [label="mse = 0.0\nsamples = 1\nvalue = 105000.0", fillcolor="#e5813919"] ;
330 -> 332 ;
333 [label="BsmtUnfSF <= 301.5\nmse = 1625000.0\nsamples = 3\nvalue = 160750.0", fillcolor="#e581392c"] ;
199 -> 333 ;
334 [label="mse = 0.0\nsamples = 1\nvalue = 158000.0", fillcolor="#e581392b"] ;
333 -> 334 ;
335 [label="LotFrontage <= 65.02\nmse = 135000.0\nsamples = 2\nvalue = 161300.0", fillcolor="#e581392d"] ;
333 -> 335 ;
336 [label="mse = 0.0\nsamples = 1\nvalue = 161000.0", fillcolor="#e581392d"] ;
335 -> 336 ;
337 [label="mse = 0.0\nsamples = 1\nvalue = 161750.0", fillcolor="#e581392d"] ;
335 -> 337 ;
338 [label="GarageCars <= 0.5\nmse = 290026563.61\nsamples = 16\nvalue = 105641.38", fillcolor="#e5813919"] ;
198 -> 338 ;
339 [label="HeatingQC_TA <= 0.5\nmse = 19154320.99\nsamples = 3\nvalue = 88611.11", fillcolor="#e5813913"] ;
338 -> 339 ;
340 [label="MoSold <= 6.0\nmse = 60000.0\nsamples = 2\nvalue = 84700.0", fillcolor="#e5813911"] ;
339 -> 340 ;
341 [label="mse = 0.0\nsamples = 1\nvalue = 85000.0", fillcolor="#e5813912"] ;
340 -> 341 ;
342 [label="mse = 0.0\nsamples = 1\nvalue = 84500.0", fillcolor="#e5813911"] ;
340 -> 342 ;
343 [label="mse = 0.0\nsamples = 1\nvalue = 93500.0", fillcolor="#e5813915"] ;
339 -> 343 ;
344 [label="GrLivArea <= 943.5\nmse = 222674475.0\nsamples = 13\nvalue = 113305.0", fillcolor="#e581391c"] ;
338 -> 344 ;
345 [label="Electrical_FuseA <= 0.5\nmse = 162560000.0\nsamples = 5\nvalue = 103200.0", fillcolor="#e5813918"] ;
344 -> 345 ;
346 [label="MoSold <= 4.5\nmse = 27343.75\nsamples = 3\nvalue = 109562.5", fillcolor="#e581391a"] ;
345 -> 346 ;
347 [label="mse = 0.0\nsamples = 1\nvalue = 110000.0", fillcolor="#e581391a"] ;
346 -> 347 ;
348 [label="mse = 0.0\nsamples = 2\nvalue = 109500.0", fillcolor="#e581391a"] ;
346 -> 348 ;
349 [label="GarageYrBlt <= 1969.0\nmse = 3062500.0\nsamples = 2\nvalue = 77750.0", fillcolor="#e581390f"] ;
345 -> 349 ;
350 [label="mse = 0.0\nsamples = 1\nvalue = 76000.0", fillcolor="#e581390e"] ;
349 -> 350 ;
351 [label="mse = 0.0\nsamples = 1\nvalue = 79500.0", fillcolor="#e5813910"] ;
349 -> 351 ;
352 [label="Foundation_PConc <= 0.5\nmse = 78566900.0\nsamples = 8\nvalue = 123410.0", fillcolor="#e581391f"] ;
344 -> 352 ;
353 [label="MoSold <= 4.0\nmse = 10256875.0\nsamples = 6\nvalue = 119325.0", fillcolor="#e581391e"] ;
352 -> 353 ;
354 [label="mse = 0.0\nsamples = 1\nvalue = 115000.0", fillcolor="#e581391c"] ;
353 -> 354 ;
355 [label="EnclosedPorch <= 151.0\nmse = 5362222.22\nsamples = 5\nvalue = 120766.67", fillcolor="#e581391e"] ;
353 -> 355 ;
356 [label="PavedDrive_P <= 0.5\nmse = 1057600.0\nsamples = 4\nvalue = 119820.0", fillcolor="#e581391e"] ;
355 -> 356 ;
357 [label="BsmtUnfSF <= 896.0\nmse = 215555.56\nsamples = 3\nvalue = 119033.33", fillcolor="#e581391e"] ;
356 -> 357 ;
358 [label="GrLivArea <= 1229.0\nmse = 22500.0\nsamples = 2\nvalue = 119350.0", fillcolor="#e581391e"] ;
357 -> 358 ;
359 [label="mse = 0.0\nsamples = 1\nvalue = 119200.0", fillcolor="#e581391e"] ;
358 -> 359 ;
360 [label="mse = 0.0\nsamples = 1\nvalue = 119500.0", fillcolor="#e581391e"] ;
358 -> 360 ;
361 [label="mse = 0.0\nsamples = 1\nvalue = 118400.0", fillcolor="#e581391d"] ;
357 -> 361 ;
362 [label="mse = 0.0\nsamples = 1\nvalue = 121000.0", fillcolor="#e581391e"] ;
356 -> 362 ;
363 [label="mse = 0.0\nsamples = 1\nvalue = 125500.0", fillcolor="#e5813920"] ;
355 -> 363 ;
364 [label="GarageYrBlt <= 1977.0\nmse = 18062500.0\nsamples = 2\nvalue = 139750.0", fillcolor="#e5813925"] ;
352 -> 364 ;
365 [label="mse = 0.0\nsamples = 1\nvalue = 135500.0", fillcolor="#e5813923"] ;
364 -> 365 ;
366 [label="mse = 0.0\nsamples = 1\nvalue = 144000.0", fillcolor="#e5813927"] ;
364 -> 366 ;
367 [label="YearBuilt <= 1983.5\nmse = 277946524.6\nsamples = 108\nvalue = 139868.38", fillcolor="#e5813925"] ;
135 -> 367 ;
368 [label="BsmtFinSF1 <= 440.5\nmse = 267014762.69\nsamples = 71\nvalue = 134475.93", fillcolor="#e5813923"] ;
367 -> 368 ;
369 [label="GrLivArea <= 1120.0\nmse = 200665429.69\nsamples = 33\nvalue = 124856.25", fillcolor="#e5813920"] ;
368 -> 369 ;
370 [label="GarageYrBlt <= 1976.5\nmse = 125088070.93\nsamples = 19\nvalue = 118867.65", fillcolor="#e581391e"] ;
369 -> 370 ;
371 [label="GarageYrBlt <= 1951.5\nmse = 45205955.56\nsamples = 9\nvalue = 109026.67", fillcolor="#e581391a"] ;
370 -> 371 ;
372 [label="PavedDrive_N <= 0.5\nmse = 722500.0\nsamples = 2\nvalue = 99150.0", fillcolor="#e5813917"] ;
371 -> 372 ;
373 [label="mse = 0.0\nsamples = 1\nvalue = 98300.0", fillcolor="#e5813916"] ;
372 -> 373 ;
374 [label="mse = 0.0\nsamples = 1\nvalue = 100000.0", fillcolor="#e5813917"] ;
372 -> 374 ;
375 [label="TotalBsmtSF <= 778.0\nmse = 13010578.51\nsamples = 7\nvalue = 112618.18", fillcolor="#e581391b"] ;
371 -> 375 ;
376 [label="KitchenQual_Gd <= 0.5\nmse = 4500000.0\nsamples = 2\nvalue = 117500.0", fillcolor="#e581391d"] ;
375 -> 376 ;
377 [label="mse = 0.0\nsamples = 1\nvalue = 120500.0", fillcolor="#e581391e"] ;
376 -> 377 ;
378 [label="mse = 0.0\nsamples = 1\nvalue = 116000.0", fillcolor="#e581391d"] ;
376 -> 378 ;
379 [label="LotArea <= 15111.0\nmse = 3913593.75\nsamples = 5\nvalue = 110787.5", fillcolor="#e581391b"] ;
375 -> 379 ;
380 [label="BsmtExposure_Av <= 0.5\nmse = 1562400.0\nsamples = 4\nvalue = 109460.0", fillcolor="#e581391a"] ;
379 -> 380 ;
381 [label="LotShape_Reg <= 0.5\nmse = 61875.0\nsamples = 3\nvalue = 110075.0", fillcolor="#e581391a"] ;
380 -> 381 ;
382 [label="LotConfig_Corner <= 0.5\nmse = 2222.22\nsamples = 2\nvalue = 109933.33", fillcolor="#e581391a"] ;
381 -> 382 ;
383 [label="mse = 0.0\nsamples = 1\nvalue = 109900.0", fillcolor="#e581391a"] ;
382 -> 383 ;
384 [label="mse = 0.0\nsamples = 1\nvalue = 110000.0", fillcolor="#e581391a"] ;
382 -> 384 ;
385 [label="mse = 0.0\nsamples = 1\nvalue = 110500.0", fillcolor="#e581391b"] ;
381 -> 385 ;
386 [label="mse = 0.0\nsamples = 1\nvalue = 107000.0", fillcolor="#e5813919"] ;
380 -> 386 ;
387 [label="mse = 0.0\nsamples = 1\nvalue = 113000.0", fillcolor="#e581391c"] ;
379 -> 387 ;
388 [label="Neighborhood_OldTown <= 0.5\nmse = 51336011.08\nsamples = 10\nvalue = 126636.84", fillcolor="#e5813920"] ;
370 -> 388 ;
389 [label="TotalBsmtSF <= 752.0\nmse = 13048593.75\nsamples = 8\nvalue = 129262.5", fillcolor="#e5813921"] ;
388 -> 389 ;
390 [label="mse = 0.0\nsamples = 1\nvalue = 122900.0", fillcolor="#e581391f"] ;
389 -> 390 ;
391 [label="GarageFinish_RFn <= 0.5\nmse = 4562130.18\nsamples = 7\nvalue = 130730.77", fillcolor="#e5813922"] ;
389 -> 391 ;
392 [label="LotFrontage <= 70.52\nmse = 1187500.0\nsamples = 4\nvalue = 132250.0", fillcolor="#e5813922"] ;
391 -> 392 ;
393 [label="Neighborhood_Mitchel <= 0.5\nmse = 222222.22\nsamples = 3\nvalue = 131666.67", fillcolor="#e5813922"] ;
392 -> 393 ;
394 [label="mse = 0.0\nsamples = 2\nvalue = 132000.0", fillcolor="#e5813922"] ;
393 -> 394 ;
395 [label="mse = 0.0\nsamples = 1\nvalue = 131000.0", fillcolor="#e5813922"] ;
393 -> 395 ;
396 [label="mse = 0.0\nsamples = 1\nvalue = 134000.0", fillcolor="#e5813923"] ;
392 -> 396 ;
397 [label="1stFlrSF <= 911.0\nmse = 360000.0\nsamples = 3\nvalue = 128300.0", fillcolor="#e5813921"] ;
391 -> 397 ;
398 [label="mse = 0.0\nsamples = 1\nvalue = 129000.0", fillcolor="#e5813921"] ;
397 -> 398 ;
399 [label="OpenPorchSF <= 130.0\nmse = 55555.56\nsamples = 2\nvalue = 127833.33", fillcolor="#e5813921"] ;
397 -> 399 ;
400 [label="mse = 0.0\nsamples = 1\nvalue = 127500.0", fillcolor="#e5813921"] ;
399 -> 400 ;
401 [label="mse = 0.0\nsamples = 1\nvalue = 128000.0", fillcolor="#e5813921"] ;
399 -> 401 ;
402 [label="1stFlrSF <= 727.0\nmse = 22668888.89\nsamples = 2\nvalue = 112633.33", fillcolor="#e581391b"] ;
388 -> 402 ;
403 [label="mse = 0.0\nsamples = 1\nvalue = 105900.0", fillcolor="#e5813919"] ;
402 -> 403 ;
404 [label="mse = 0.0\nsamples = 1\nvalue = 116000.0", fillcolor="#e581391d"] ;
402 -> 404 ;
405 [label="BedroomAbvGr <= 3.5\nmse = 176384473.14\nsamples = 14\nvalue = 134111.36", fillcolor="#e5813923"] ;
369 -> 405 ;
406 [label="GarageArea <= 451.0\nmse = 99375322.02\nsamples = 12\nvalue = 137602.63", fillcolor="#e5813924"] ;
405 -> 406 ;
407 [label="Foundation_BrkTil <= 0.5\nmse = 8745350.0\nsamples = 3\nvalue = 150130.0", fillcolor="#e5813929"] ;
406 -> 407 ;
408 [label="Neighborhood_NPkVill <= 0.5\nmse = 1388888.89\nsamples = 2\nvalue = 147833.33", fillcolor="#e5813928"] ;
407 -> 408 ;
409 [label="mse = 0.0\nsamples = 1\nvalue = 149500.0", fillcolor="#e5813928"] ;
408 -> 409 ;
410 [label="mse = 0.0\nsamples = 1\nvalue = 147000.0", fillcolor="#e5813928"] ;
408 -> 410 ;
411 [label="mse = 0.0\nsamples = 1\nvalue = 153575.0", fillcolor="#e581392a"] ;
407 -> 411 ;
412 [label="OpenPorchSF <= 18.0\nmse = 55677755.1\nsamples = 9\nvalue = 133128.57", fillcolor="#e5813923"] ;
406 -> 412 ;
413 [label="BsmtUnfSF <= 636.0\nmse = 19762644.63\nsamples = 7\nvalue = 129890.91", fillcolor="#e5813922"] ;
412 -> 413 ;
414 [label="BsmtFinType1_ALQ <= 0.5\nmse = 4812500.0\nsamples = 5\nvalue = 127500.0", fillcolor="#e5813921"] ;
413 -> 414 ;
415 [label="MoSold <= 4.5\nmse = 972222.22\nsamples = 4\nvalue = 128666.67", fillcolor="#e5813921"] ;
414 -> 415 ;
416 [label="mse = 0.0\nsamples = 1\nvalue = 130000.0", fillcolor="#e5813922"] ;
415 -> 416 ;
417 [label="LotFrontage <= 56.0\nmse = 125000.0\nsamples = 3\nvalue = 128000.0", fillcolor="#e5813921"] ;
415 -> 417 ;
418 [label="mse = 0.0\nsamples = 1\nvalue = 127500.0", fillcolor="#e5813921"] ;
417 -> 418 ;
419 [label="Condition1_RRNn <= 0.5\nmse = 55555.56\nsamples = 2\nvalue = 128166.67", fillcolor="#e5813921"] ;
417 -> 419 ;
420 [label="mse = 0.0\nsamples = 1\nvalue = 128500.0", fillcolor="#e5813921"] ;
419 -> 420 ;
421 [label="mse = 0.0\nsamples = 1\nvalue = 128000.0", fillcolor="#e5813921"] ;
419 -> 421 ;
422 [label="mse = 0.0\nsamples = 1\nvalue = 124000.0", fillcolor="#e581391f"] ;
414 -> 422 ;
423 [label="GrLivArea <= 1213.0\nmse = 3735555.56\nsamples = 2\nvalue = 136266.67", fillcolor="#e5813924"] ;
413 -> 423 ;
424 [label="mse = 0.0\nsamples = 1\nvalue = 134900.0", fillcolor="#e5813923"] ;
423 -> 424 ;
425 [label="mse = 0.0\nsamples = 1\nvalue = 139000.0", fillcolor="#e5813925"] ;
423 -> 425 ;
426 [label="Neighborhood_OldTown <= 0.5\nmse = 8000000.0\nsamples = 2\nvalue = 145000.0", fillcolor="#e5813927"] ;
412 -> 426 ;
427 [label="mse = 0.0\nsamples = 1\nvalue = 141000.0", fillcolor="#e5813925"] ;
426 -> 427 ;
428 [label="mse = 0.0\nsamples = 1\nvalue = 147000.0", fillcolor="#e5813928"] ;
426 -> 428 ;
429 [label="Neighborhood_Edwards <= 0.5\nmse = 98000000.0\nsamples = 2\nvalue = 112000.0", fillcolor="#e581391b"] ;
405 -> 429 ;
430 [label="mse = 0.0\nsamples = 1\nvalue = 98000.0", fillcolor="#e5813916"] ;
429 -> 430 ;
431 [label="mse = 0.0\nsamples = 1\nvalue = 119000.0", fillcolor="#e581391e"] ;
429 -> 431 ;
432 [label="LotArea <= 13355.0\nmse = 167865931.35\nsamples = 38\nvalue = 143164.68", fillcolor="#e5813926"] ;
368 -> 432 ;
433 [label="LotFrontage <= 58.0\nmse = 110237817.36\nsamples = 35\nvalue = 140864.21", fillcolor="#e5813925"] ;
432 -> 433 ;
434 [label="TotalBsmtSF <= 691.0\nmse = 43600763.89\nsamples = 8\nvalue = 128908.33", fillcolor="#e5813921"] ;
433 -> 434 ;
435 [label="mse = 0.0\nsamples = 1\nvalue = 112000.0", fillcolor="#e581391b"] ;
434 -> 435 ;
436 [label="MoSold <= 6.5\nmse = 19211570.25\nsamples = 7\nvalue = 130445.45", fillcolor="#e5813922"] ;
434 -> 436 ;
437 [label="MSSubClass <= 140.0\nmse = 5784897.96\nsamples = 4\nvalue = 127771.43", fillcolor="#e5813921"] ;
436 -> 437 ;
438 [label="1stFlrSF <= 831.0\nmse = 42500.0\nsamples = 3\nvalue = 129850.0", fillcolor="#e5813921"] ;
437 -> 438 ;
439 [label="mse = 0.0\nsamples = 1\nvalue = 129500.0", fillcolor="#e5813921"] ;
438 -> 439 ;
440 [label="Neighborhood_MeadowV <= 0.5\nmse = 2222.22\nsamples = 2\nvalue = 129966.67", fillcolor="#e5813922"] ;
438 -> 440 ;
441 [label="mse = 0.0\nsamples = 1\nvalue = 130000.0", fillcolor="#e5813922"] ;
440 -> 441 ;
442 [label="mse = 0.0\nsamples = 1\nvalue = 129900.0", fillcolor="#e5813922"] ;
440 -> 442 ;
443 [label="mse = 0.0\nsamples = 1\nvalue = 125000.0", fillcolor="#e5813920"] ;
437 -> 443 ;
444 [label="Exterior2nd_Plywood <= 0.5\nmse = 8296875.0\nsamples = 3\nvalue = 135125.0", fillcolor="#e5813923"] ;
436 -> 444 ;
445 [label="HouseStyle_1Story <= 0.5\nmse = 500000.0\nsamples = 2\nvalue = 133500.0", fillcolor="#e5813923"] ;
444 -> 445 ;
446 [label="mse = 0.0\nsamples = 1\nvalue = 132500.0", fillcolor="#e5813922"] ;
445 -> 446 ;
447 [label="mse = 0.0\nsamples = 1\nvalue = 134000.0", fillcolor="#e5813923"] ;
445 -> 447 ;
448 [label="mse = 0.0\nsamples = 1\nvalue = 140000.0", fillcolor="#e5813925"] ;
444 -> 448 ;
449 [label="LotArea <= 8572.5\nmse = 79724729.58\nsamples = 27\nvalue = 144052.44", fillcolor="#e5813927"] ;
433 -> 449 ;
450 [label="ScreenPorch <= 96.0\nmse = 42926346.0\nsamples = 10\nvalue = 138478.0", fillcolor="#e5813925"] ;
449 -> 450 ;
451 [label="YrSold <= 2008.5\nmse = 9792176.54\nsamples = 9\nvalue = 136531.11", fillcolor="#e5813924"] ;
450 -> 451 ;
452 [label="MasVnrType_BrkFace <= 0.5\nmse = 3511768.75\nsamples = 5\nvalue = 139607.5", fillcolor="#e5813925"] ;
451 -> 452 ;
453 [label="GarageFinish_Unf <= 0.5\nmse = 1040400.0\nsamples = 2\nvalue = 136980.0", fillcolor="#e5813924"] ;
452 -> 453 ;
454 [label="mse = 0.0\nsamples = 1\nvalue = 138000.0", fillcolor="#e5813924"] ;
453 -> 454 ;
455 [label="mse = 0.0\nsamples = 1\nvalue = 135960.0", fillcolor="#e5813924"] ;
453 -> 455 ;
456 [label="GarageCars <= 1.5\nmse = 1267222.22\nsamples = 3\nvalue = 140483.33", fillcolor="#e5813925"] ;
452 -> 456 ;
457 [label="mse = 0.0\nsamples = 1\nvalue = 143000.0", fillcolor="#e5813926"] ;
456 -> 457 ;
458 [label="GarageType_Detchd <= 0.5\nmse = 600.0\nsamples = 2\nvalue = 139980.0", fillcolor="#e5813925"] ;
456 -> 458 ;
459 [label="mse = 0.0\nsamples = 1\nvalue = 139950.0", fillcolor="#e5813925"] ;
458 -> 459 ;
460 [label="mse = 0.0\nsamples = 1\nvalue = 140000.0", fillcolor="#e5813925"] ;
458 -> 460 ;
461 [label="LotFrontage <= 70.02\nmse = 1188100.0\nsamples = 4\nvalue = 134070.0", fillcolor="#e5813923"] ;
451 -> 461 ;
462 [label="HouseStyle_SFoyer <= 0.5\nmse = 62500.0\nsamples = 2\nvalue = 132750.0", fillcolor="#e5813923"] ;
461 -> 462 ;
463 [label="mse = 0.0\nsamples = 1\nvalue = 132500.0", fillcolor="#e5813922"] ;
462 -> 463 ;
464 [label="mse = 0.0\nsamples = 1\nvalue = 133000.0", fillcolor="#e5813923"] ;
462 -> 464 ;
465 [label="HouseStyle_SFoyer <= 0.5\nmse = 2500.0\nsamples = 2\nvalue = 134950.0", fillcolor="#e5813923"] ;
461 -> 465 ;
466 [label="mse = 0.0\nsamples = 1\nvalue = 135000.0", fillcolor="#e5813923"] ;
465 -> 466 ;
467 [label="mse = 0.0\nsamples = 1\nvalue = 134900.0", fillcolor="#e5813923"] ;
465 -> 467 ;
468 [label="mse = 0.0\nsamples = 1\nvalue = 156000.0", fillcolor="#e581392b"] ;
450 -> 468 ;
469 [label="BsmtUnfSF <= 194.5\nmse = 64416256.0\nsamples = 17\nvalue = 148512.0", fillcolor="#e5813928"] ;
449 -> 469 ;
470 [label="Neighborhood_CollgCr <= 0.5\nmse = 37519843.75\nsamples = 7\nvalue = 141037.5", fillcolor="#e5813925"] ;
469 -> 470 ;
471 [label="Exterior1st_HdBoard <= 0.5\nmse = 24905555.56\nsamples = 5\nvalue = 138566.67", fillcolor="#e5813925"] ;
470 -> 471 ;
472 [label="BsmtExposure_Gd <= 0.5\nmse = 10002222.22\nsamples = 3\nvalue = 134133.33", fillcolor="#e5813923"] ;
471 -> 472 ;
473 [label="mse = 0.0\nsamples = 1\nvalue = 129900.0", fillcolor="#e5813922"] ;
472 -> 473 ;
474 [label="BsmtFinSF1 <= 869.0\nmse = 1562500.0\nsamples = 2\nvalue = 136250.0", fillcolor="#e5813924"] ;
472 -> 474 ;
475 [label="mse = 0.0\nsamples = 1\nvalue = 137500.0", fillcolor="#e5813924"] ;
474 -> 475 ;
476 [label="mse = 0.0\nsamples = 1\nvalue = 135000.0", fillcolor="#e5813923"] ;
474 -> 476 ;
477 [label="1stFlrSF <= 889.0\nmse = 500000.0\nsamples = 2\nvalue = 143000.0", fillcolor="#e5813926"] ;
471 -> 477 ;
478 [label="mse = 0.0\nsamples = 1\nvalue = 144000.0", fillcolor="#e5813927"] ;
477 -> 478 ;
479 [label="mse = 0.0\nsamples = 1\nvalue = 142500.0", fillcolor="#e5813926"] ;
477 -> 479 ;
480 [label="GarageCond_TA <= 0.5\nmse = 2102500.0\nsamples = 2\nvalue = 148450.0", fillcolor="#e5813928"] ;
470 -> 480 ;
481 [label="mse = 0.0\nsamples = 1\nvalue = 147000.0", fillcolor="#e5813928"] ;
480 -> 481 ;
482 [label="mse = 0.0\nsamples = 1\nvalue = 149900.0", fillcolor="#e5813929"] ;
480 -> 482 ;
483 [label="MasVnrArea <= 275.5\nmse = 38410311.42\nsamples = 10\nvalue = 152029.41", fillcolor="#e5813929"] ;
469 -> 483 ;
484 [label="Foundation_PConc <= 0.5\nmse = 19603593.75\nsamples = 9\nvalue = 150912.5", fillcolor="#e5813929"] ;
483 -> 484 ;
485 [label="LotFrontage <= 75.02\nmse = 8210059.17\nsamples = 7\nvalue = 152461.54", fillcolor="#e581392a"] ;
484 -> 485 ;
486 [label="Exterior1st_VinylSd <= 0.5\nmse = 1500000.0\nsamples = 4\nvalue = 149500.0", fillcolor="#e5813928"] ;
485 -> 486 ;
487 [label="BsmtFinType1_ALQ <= 0.5\nmse = 300000.0\nsamples = 3\nvalue = 150000.0", fillcolor="#e5813929"] ;
486 -> 487 ;
488 [label="BsmtFinType1_Rec <= 0.5\nmse = 62500.0\nsamples = 2\nvalue = 150250.0", fillcolor="#e5813929"] ;
487 -> 488 ;
489 [label="mse = 0.0\nsamples = 1\nvalue = 150500.0", fillcolor="#e5813929"] ;
488 -> 489 ;
490 [label="mse = 0.0\nsamples = 1\nvalue = 150000.0", fillcolor="#e5813929"] ;
488 -> 490 ;
491 [label="mse = 0.0\nsamples = 1\nvalue = 149000.0", fillcolor="#e5813928"] ;
487 -> 491 ;
492 [label="mse = 0.0\nsamples = 1\nvalue = 147000.0", fillcolor="#e5813928"] ;
486 -> 492 ;
493 [label="mse = 0.0\nsamples = 3\nvalue = 155000.0", fillcolor="#e581392a"] ;
485 -> 493 ;
494 [label="Condition1_Feedr <= 0.5\nmse = 13520000.0\nsamples = 2\nvalue = 144200.0", fillcolor="#e5813927"] ;
484 -> 494 ;
495 [label="mse = 0.0\nsamples = 1\nvalue = 146800.0", fillcolor="#e5813928"] ;
494 -> 495 ;
496 [label="mse = 0.0\nsamples = 1\nvalue = 139000.0", fillcolor="#e5813925"] ;
494 -> 496 ;
497 [label="mse = 0.0\nsamples = 1\nvalue = 169900.0", fillcolor="#e5813930"] ;
483 -> 497 ;
498 [label="RoofStyle_Gable <= 0.5\nmse = 76728400.0\nsamples = 3\nvalue = 169390.0", fillcolor="#e5813930"] ;
432 -> 498 ;
499 [label="mse = 0.0\nsamples = 1\nvalue = 180000.0", fillcolor="#e5813933"] ;
498 -> 499 ;
500 [label="HeatingQC_Ex <= 0.5\nmse = 2800555.56\nsamples = 2\nvalue = 162316.67", fillcolor="#e581392d"] ;
498 -> 500 ;
501 [label="mse = 0.0\nsamples = 1\nvalue = 159950.0", fillcolor="#e581392c"] ;
500 -> 501 ;
502 [label="mse = 0.0\nsamples = 1\nvalue = 163500.0", fillcolor="#e581392d"] ;
500 -> 502 ;
503 [label="2ndFlrSF <= 606.0\nmse = 99441474.4\nsamples = 37\nvalue = 151651.89", fillcolor="#e5813929"] ;
367 -> 503 ;
504 [label="Neighborhood_Timber <= 0.5\nmse = 54160888.44\nsamples = 27\nvalue = 147802.6", fillcolor="#e5813928"] ;
503 -> 504 ;
505 [label="GarageFinish_Fin <= 0.5\nmse = 34639875.93\nsamples = 26\nvalue = 147079.59", fillcolor="#e5813928"] ;
504 -> 505 ;
506 [label="LotArea <= 13383.5\nmse = 28139400.23\nsamples = 21\nvalue = 148425.12", fillcolor="#e5813928"] ;
505 -> 506 ;
507 [label="HeatingQC_Gd <= 0.5\nmse = 19630964.06\nsamples = 18\nvalue = 147355.7", fillcolor="#e5813928"] ;
506 -> 507 ;
508 [label="TotalBsmtSF <= 963.0\nmse = 15626708.64\nsamples = 16\nvalue = 146525.17", fillcolor="#e5813927"] ;
507 -> 508 ;
509 [label="BsmtExposure_Mn <= 0.5\nmse = 9391423.57\nsamples = 11\nvalue = 148273.6", fillcolor="#e5813928"] ;
508 -> 509 ;
510 [label="SaleCondition_Normal <= 0.5\nmse = 5611067.84\nsamples = 10\nvalue = 147728.86", fillcolor="#e5813928"] ;
509 -> 510 ;
511 [label="mse = 0.0\nsamples = 1\nvalue = 144152.0", fillcolor="#e5813927"] ;
510 -> 511 ;
512 [label="WoodDeckSF <= 154.5\nmse = 4058541.67\nsamples = 9\nvalue = 148325.0", fillcolor="#e5813928"] ;
510 -> 512 ;
513 [label="BsmtFinType1_Unf <= 0.5\nmse = 1615371.9\nsamples = 8\nvalue = 148809.09", fillcolor="#e5813928"] ;
512 -> 513 ;
514 [label="GarageArea <= 502.5\nmse = 670617.28\nsamples = 6\nvalue = 148322.22", fillcolor="#e5813928"] ;
513 -> 514 ;
515 [label="BsmtFinSF1 <= 679.5\nmse = 33600.0\nsamples = 3\nvalue = 148980.0", fillcolor="#e5813928"] ;
514 -> 515 ;
516 [label="BsmtExposure_No <= 0.5\nmse = 10000.0\nsamples = 2\nvalue = 148900.0", fillcolor="#e5813928"] ;
515 -> 516 ;
517 [label="mse = 0.0\nsamples = 1\nvalue = 149000.0", fillcolor="#e5813928"] ;
516 -> 517 ;
518 [label="mse = 0.0\nsamples = 1\nvalue = 148800.0", fillcolor="#e5813928"] ;
516 -> 518 ;
519 [label="mse = 0.0\nsamples = 1\nvalue = 149300.0", fillcolor="#e5813928"] ;
515 -> 519 ;
520 [label="LotArea <= 8957.5\nmse = 250000.0\nsamples = 3\nvalue = 147500.0", fillcolor="#e5813928"] ;
514 -> 520 ;
521 [label="mse = 0.0\nsamples = 2\nvalue = 148000.0", fillcolor="#e5813928"] ;
520 -> 521 ;
522 [label="mse = 0.0\nsamples = 1\nvalue = 147000.0", fillcolor="#e5813928"] ;
520 -> 522 ;
523 [label="mse = 0.0\nsamples = 2\nvalue = 151000.0", fillcolor="#e5813929"] ;
513 -> 523 ;
524 [label="mse = 0.0\nsamples = 1\nvalue = 143000.0", fillcolor="#e5813926"] ;
512 -> 524 ;
525 [label="mse = 0.0\nsamples = 1\nvalue = 155900.0", fillcolor="#e581392b"] ;
509 -> 525 ;
526 [label="FullBath <= 1.5\nmse = 12432098.77\nsamples = 5\nvalue = 143611.11", fillcolor="#e5813926"] ;
508 -> 526 ;
527 [label="TotRmsAbvGrd <= 5.5\nmse = 4089843.75\nsamples = 4\nvalue = 142562.5", fillcolor="#e5813926"] ;
526 -> 527 ;
528 [label="mse = 0.0\nsamples = 1\nvalue = 138000.0", fillcolor="#e5813924"] ;
527 -> 528 ;
529 [label="YrSold <= 2007.5\nmse = 1275510.2\nsamples = 3\nvalue = 143214.29", fillcolor="#e5813926"] ;
527 -> 529 ;
530 [label="mse = 0.0\nsamples = 2\nvalue = 142500.0", fillcolor="#e5813926"] ;
529 -> 530 ;
531 [label="mse = 0.0\nsamples = 1\nvalue = 145000.0", fillcolor="#e5813927"] ;
529 -> 531 ;
532 [label="mse = 0.0\nsamples = 1\nvalue = 152000.0", fillcolor="#e5813929"] ;
526 -> 532 ;
533 [label="MoSold <= 7.5\nmse = 2000000.0\nsamples = 2\nvalue = 154000.0", fillcolor="#e581392a"] ;
507 -> 533 ;
534 [label="mse = 0.0\nsamples = 1\nvalue = 155000.0", fillcolor="#e581392a"] ;
533 -> 534 ;
535 [label="mse = 0.0\nsamples = 1\nvalue = 152000.0", fillcolor="#e5813929"] ;
533 -> 535 ;
536 [label="Foundation_PConc <= 0.5\nmse = 34560000.0\nsamples = 3\nvalue = 154200.0", fillcolor="#e581392a"] ;
506 -> 536 ;
537 [label="mse = 0.0\nsamples = 1\nvalue = 143000.0", fillcolor="#e5813926"] ;
536 -> 537 ;
538 [label="OpenPorchSF <= 90.0\nmse = 4000000.0\nsamples = 2\nvalue = 157000.0", fillcolor="#e581392b"] ;
536 -> 538 ;
539 [label="mse = 0.0\nsamples = 1\nvalue = 155000.0", fillcolor="#e581392a"] ;
538 -> 539 ;
540 [label="mse = 0.0\nsamples = 1\nvalue = 159000.0", fillcolor="#e581392c"] ;
538 -> 540 ;
541 [label="LotFrontage <= 53.52\nmse = 18244897.96\nsamples = 5\nvalue = 140928.57", fillcolor="#e5813925"] ;
505 -> 541 ;
542 [label="KitchenQual_Gd <= 0.5\nmse = 3062500.0\nsamples = 2\nvalue = 134750.0", fillcolor="#e5813923"] ;
541 -> 542 ;
543 [label="mse = 0.0\nsamples = 1\nvalue = 133000.0", fillcolor="#e5813923"] ;
542 -> 543 ;
544 [label="mse = 0.0\nsamples = 1\nvalue = 136500.0", fillcolor="#e5813924"] ;
542 -> 544 ;
545 [label="MoSold <= 5.5\nmse = 2940000.0\nsamples = 3\nvalue = 143400.0", fillcolor="#e5813926"] ;
541 -> 545 ;
546 [label="mse = 0.0\nsamples = 1\nvalue = 140000.0", fillcolor="#e5813925"] ;
545 -> 546 ;
547 [label="BsmtFinSF1 <= 673.5\nmse = 62500.0\nsamples = 2\nvalue = 144250.0", fillcolor="#e5813927"] ;
545 -> 547 ;
548 [label="mse = 0.0\nsamples = 1\nvalue = 144500.0", fillcolor="#e5813927"] ;
547 -> 548 ;
549 [label="mse = 0.0\nsamples = 1\nvalue = 144000.0", fillcolor="#e5813927"] ;
547 -> 549 ;
550 [label="mse = 0.0\nsamples = 1\nvalue = 176000.0", fillcolor="#e5813932"] ;
504 -> 550 ;
551 [label="MoSold <= 2.5\nmse = 65524914.41\nsamples = 10\nvalue = 162649.86", fillcolor="#e581392d"] ;
503 -> 551 ;
552 [label="mse = 0.0\nsamples = 1\nvalue = 146000.0", fillcolor="#e5813927"] ;
551 -> 552 ;
553 [label="LowQualFinSF <= 40.0\nmse = 47600509.01\nsamples = 9\nvalue = 163930.62", fillcolor="#e581392e"] ;
551 -> 553 ;
554 [label="BsmtFinType1_GLQ <= 0.5\nmse = 26897800.14\nsamples = 8\nvalue = 165308.17", fillcolor="#e581392e"] ;
553 -> 554 ;
555 [label="GarageArea <= 576.5\nmse = 15242684.16\nsamples = 7\nvalue = 163623.2", fillcolor="#e581392d"] ;
554 -> 555 ;
556 [label="MoSold <= 4.0\nmse = 8478856.69\nsamples = 6\nvalue = 162703.56", fillcolor="#e581392d"] ;
555 -> 556 ;
557 [label="MSZoning_RL <= 0.5\nmse = 2353156.0\nsamples = 2\nvalue = 158466.0", fillcolor="#e581392c"] ;
556 -> 557 ;
558 [label="mse = 0.0\nsamples = 1\nvalue = 160000.0", fillcolor="#e581392c"] ;
557 -> 558 ;
559 [label="mse = 0.0\nsamples = 1\nvalue = 156932.0", fillcolor="#e581392b"] ;
557 -> 559 ;
560 [label="Condition1_RRAn <= 0.5\nmse = 3632653.06\nsamples = 4\nvalue = 163914.29", fillcolor="#e581392e"] ;
556 -> 560 ;
561 [label="ExterQual_Gd <= 0.5\nmse = 1547500.0\nsamples = 3\nvalue = 165350.0", fillcolor="#e581392e"] ;
560 -> 561 ;
562 [label="mse = 0.0\nsamples = 1\nvalue = 167500.0", fillcolor="#e581392f"] ;
561 -> 562 ;
563 [label="LotFrontage <= 37.5\nmse = 8888.89\nsamples = 2\nvalue = 164633.33", fillcolor="#e581392e"] ;
561 -> 563 ;
564 [label="mse = 0.0\nsamples = 1\nvalue = 164700.0", fillcolor="#e581392e"] ;
563 -> 564 ;
565 [label="mse = 0.0\nsamples = 1\nvalue = 164500.0", fillcolor="#e581392e"] ;
563 -> 565 ;
566 [label="mse = 0.0\nsamples = 1\nvalue = 162000.0", fillcolor="#e581392d"] ;
560 -> 566 ;
567 [label="mse = 0.0\nsamples = 1\nvalue = 171900.0", fillcolor="#e5813930"] ;
555 -> 567 ;
568 [label="mse = 0.0\nsamples = 1\nvalue = 173733.0", fillcolor="#e5813931"] ;
554 -> 568 ;
569 [label="mse = 0.0\nsamples = 1\nvalue = 147400.0", fillcolor="#e5813928"] ;
553 -> 569 ;
570 [label="YearRemodAdd <= 1996.5\nmse = 953166208.86\nsamples = 102\nvalue = 161751.7", fillcolor="#e581392d"] ;
2 -> 570 ;
571 [label="OverallCond <= 4.5\nmse = 658334206.3\nsamples = 67\nvalue = 149310.1", fillcolor="#e5813928"] ;
570 -> 571 ;
572 [label="Exterior2nd_Brk Cmn <= 0.5\nmse = 564860920.25\nsamples = 4\nvalue = 99479.5", fillcolor="#e5813917"] ;
571 -> 572 ;
573 [label="YearRemodAdd <= 1963.0\nmse = 60423040.22\nsamples = 3\nvalue = 112639.33", fillcolor="#e581391b"] ;
572 -> 573 ;
574 [label="mse = 0.0\nsamples = 1\nvalue = 130000.0", fillcolor="#e5813922"] ;
573 -> 574 ;
575 [label="BsmtExposure_Av <= 0.5\nmse = 173388.96\nsamples = 2\nvalue = 109167.2", fillcolor="#e581391a"] ;
573 -> 575 ;
576 [label="mse = 0.0\nsamples = 1\nvalue = 110000.0", fillcolor="#e581391a"] ;
575 -> 576 ;
577 [label="mse = 0.0\nsamples = 1\nvalue = 108959.0", fillcolor="#e581391a"] ;
575 -> 577 ;
578 [label="mse = 0.0\nsamples = 1\nvalue = 60000.0", fillcolor="#e5813909"] ;
572 -> 578 ;
579 [label="BsmtQual_Gd <= 0.5\nmse = 444362600.78\nsamples = 63\nvalue = 153419.84", fillcolor="#e581392a"] ;
571 -> 579 ;
580 [label="GrLivArea <= 1396.5\nmse = 350291951.91\nsamples = 46\nvalue = 146635.61", fillcolor="#e5813927"] ;
579 -> 580 ;
581 [label="TotalBsmtSF <= 1151.0\nmse = 291424771.6\nsamples = 45\nvalue = 147622.31", fillcolor="#e5813928"] ;
580 -> 581 ;
582 [label="GarageType_CarPort <= 0.5\nmse = 238763602.85\nsamples = 21\nvalue = 138636.21", fillcolor="#e5813925"] ;
581 -> 582 ;
583 [label="OpenPorchSF <= 72.5\nmse = 159792228.95\nsamples = 20\nvalue = 140373.21", fillcolor="#e5813925"] ;
582 -> 583 ;
584 [label="LotArea <= 6952.0\nmse = 98473129.25\nsamples = 16\nvalue = 135735.71", fillcolor="#e5813924"] ;
583 -> 584 ;
585 [label="mse = 0.0\nsamples = 1\nvalue = 100000.0", fillcolor="#e5813917"] ;
584 -> 585 ;
586 [label="GarageYrBlt <= 1969.0\nmse = 36352118.75\nsamples = 15\nvalue = 137522.5", fillcolor="#e5813924"] ;
584 -> 586 ;
587 [label="BsmtUnfSF <= 37.5\nmse = 18107308.67\nsamples = 10\nvalue = 134496.43", fillcolor="#e5813923"] ;
586 -> 587 ;
588 [label="GarageType_Attchd <= 0.5\nmse = 12250000.0\nsamples = 2\nvalue = 126500.0", fillcolor="#e5813920"] ;
587 -> 588 ;
589 [label="mse = 0.0\nsamples = 1\nvalue = 130000.0", fillcolor="#e5813922"] ;
588 -> 589 ;
590 [label="mse = 0.0\nsamples = 1\nvalue = 123000.0", fillcolor="#e581391f"] ;
588 -> 590 ;
591 [label="Exterior1st_BrkFace <= 0.5\nmse = 6650190.97\nsamples = 8\nvalue = 135829.17", fillcolor="#e5813924"] ;
587 -> 591 ;
592 [label="GarageYrBlt <= 1961.5\nmse = 2025555.56\nsamples = 6\nvalue = 134550.0", fillcolor="#e5813923"] ;
591 -> 592 ;
593 [label="GarageType_Attchd <= 0.5\nmse = 986458.33\nsamples = 4\nvalue = 135325.0", fillcolor="#e5813923"] ;
592 -> 593 ;
594 [label="mse = 0.0\nsamples = 1\nvalue = 137500.0", fillcolor="#e5813924"] ;
593 -> 594 ;
595 [label="Exterior2nd_HdBoard <= 0.5\nmse = 48400.0\nsamples = 3\nvalue = 134890.0", fillcolor="#e5813923"] ;
593 -> 595 ;
596 [label="mse = 0.0\nsamples = 2\nvalue = 135000.0", fillcolor="#e5813923"] ;
595 -> 596 ;
597 [label="mse = 0.0\nsamples = 1\nvalue = 134450.0", fillcolor="#e5813923"] ;
595 -> 597 ;
598 [label="1stFlrSF <= 1200.5\nmse = 500000.0\nsamples = 2\nvalue = 133000.0", fillcolor="#e5813923"] ;
592 -> 598 ;
599 [label="mse = 0.0\nsamples = 1\nvalue = 132500.0", fillcolor="#e5813922"] ;
598 -> 599 ;
600 [label="mse = 0.0\nsamples = 1\nvalue = 134000.0", fillcolor="#e5813923"] ;
598 -> 600 ;
601 [label="Functional_Typ <= 0.5\nmse = 888888.89\nsamples = 2\nvalue = 139666.67", fillcolor="#e5813925"] ;
591 -> 601 ;
602 [label="mse = 0.0\nsamples = 1\nvalue = 139000.0", fillcolor="#e5813925"] ;
601 -> 602 ;
603 [label="mse = 0.0\nsamples = 1\nvalue = 141000.0", fillcolor="#e5813925"] ;
601 -> 603 ;
604 [label="1stFlrSF <= 1161.0\nmse = 7701388.89\nsamples = 5\nvalue = 144583.33", fillcolor="#e5813927"] ;
586 -> 604 ;
605 [label="mse = 0.0\nsamples = 1\nvalue = 148000.0", fillcolor="#e5813928"] ;
604 -> 605 ;
606 [label="OverallCond <= 6.0\nmse = 2796875.0\nsamples = 4\nvalue = 142875.0", fillcolor="#e5813926"] ;
604 -> 606 ;
607 [label="MasVnrArea <= 74.0\nmse = 55555.56\nsamples = 3\nvalue = 143833.33", fillcolor="#e5813926"] ;
606 -> 607 ;
608 [label="mse = 0.0\nsamples = 2\nvalue = 144000.0", fillcolor="#e5813927"] ;
607 -> 608 ;
609 [label="mse = 0.0\nsamples = 1\nvalue = 143500.0", fillcolor="#e5813926"] ;
607 -> 609 ;
610 [label="mse = 0.0\nsamples = 1\nvalue = 140000.0", fillcolor="#e5813925"] ;
606 -> 610 ;
611 [label="HouseStyle_SLvl <= 0.5\nmse = 85672653.06\nsamples = 4\nvalue = 154285.71", fillcolor="#e581392a"] ;
583 -> 611 ;
612 [label="FullBath <= 1.5\nmse = 17322500.0\nsamples = 3\nvalue = 150850.0", fillcolor="#e5813929"] ;
611 -> 612 ;
613 [label="MasVnrType_BrkFace <= 0.5\nmse = 693600.0\nsamples = 2\nvalue = 149020.0", fillcolor="#e5813928"] ;
612 -> 613 ;
614 [label="mse = 0.0\nsamples = 1\nvalue = 149700.0", fillcolor="#e5813929"] ;
613 -> 614 ;
615 [label="mse = 0.0\nsamples = 1\nvalue = 148000.0", fillcolor="#e5813928"] ;
613 -> 615 ;
616 [label="mse = 0.0\nsamples = 1\nvalue = 160000.0", fillcolor="#e581392c"] ;
612 -> 616 ;
617 [label="mse = 0.0\nsamples = 1\nvalue = 174900.0", fillcolor="#e5813931"] ;
611 -> 617 ;
618 [label="mse = 0.0\nsamples = 1\nvalue = 90000.0", fillcolor="#e5813913"] ;
582 -> 618 ;
619 [label="HouseStyle_1Story <= 0.5\nmse = 216397376.54\nsamples = 24\nvalue = 154861.11", fillcolor="#e581392a"] ;
581 -> 619 ;
620 [label="BsmtUnfSF <= 211.5\nmse = 34989795.92\nsamples = 4\nvalue = 175214.29", fillcolor="#e5813932"] ;
619 -> 620 ;
621 [label="MasVnrArea <= 242.5\nmse = 4860000.0\nsamples = 2\nvalue = 178700.0", fillcolor="#e5813933"] ;
620 -> 621 ;
622 [label="mse = 0.0\nsamples = 1\nvalue = 180500.0", fillcolor="#e5813933"] ;
621 -> 622 ;
623 [label="mse = 0.0\nsamples = 1\nvalue = 176000.0", fillcolor="#e5813932"] ;
621 -> 623 ;
624 [label="BsmtFinType1_GLQ <= 0.5\nmse = 4000000.0\nsamples = 2\nvalue = 166500.0", fillcolor="#e581392e"] ;
620 -> 624 ;
625 [label="mse = 0.0\nsamples = 1\nvalue = 164500.0", fillcolor="#e581392e"] ;
624 -> 625 ;
626 [label="mse = 0.0\nsamples = 1\nvalue = 168500.0", fillcolor="#e581392f"] ;
624 -> 626 ;
627 [label="YearRemodAdd <= 1951.5\nmse = 136057669.44\nsamples = 20\nvalue = 149948.28", fillcolor="#e5813929"] ;
619 -> 627 ;
628 [label="mse = 0.0\nsamples = 2\nvalue = 125000.0", fillcolor="#e5813920"] ;
627 -> 628 ;
629 [label="HeatingQC_TA <= 0.5\nmse = 96615912.21\nsamples = 18\nvalue = 151796.3", fillcolor="#e5813929"] ;
627 -> 629 ;
630 [label="MoSold <= 8.0\nmse = 60395555.56\nsamples = 9\nvalue = 146433.33", fillcolor="#e5813927"] ;
629 -> 630 ;
631 [label="WoodDeckSF <= 109.0\nmse = 30975206.61\nsamples = 6\nvalue = 142954.55", fillcolor="#e5813926"] ;
630 -> 631 ;
632 [label="GarageArea <= 347.5\nmse = 9959183.67\nsamples = 4\nvalue = 139428.57", fillcolor="#e5813925"] ;
631 -> 632 ;
633 [label="mse = 0.0\nsamples = 1\nvalue = 132000.0", fillcolor="#e5813922"] ;
632 -> 633 ;
634 [label="BsmtFinSF1 <= 849.0\nmse = 888888.89\nsamples = 3\nvalue = 140666.67", fillcolor="#e5813925"] ;
632 -> 634 ;
635 [label="mse = 0.0\nsamples = 2\nvalue = 140000.0", fillcolor="#e5813925"] ;
634 -> 635 ;
636 [label="mse = 0.0\nsamples = 1\nvalue = 142000.0", fillcolor="#e5813926"] ;
634 -> 636 ;
637 [label="GarageArea <= 290.5\nmse = 7921875.0\nsamples = 2\nvalue = 149125.0", fillcolor="#e5813928"] ;
631 -> 637 ;
638 [label="mse = 0.0\nsamples = 1\nvalue = 147500.0", fillcolor="#e5813928"] ;
637 -> 638 ;
639 [label="mse = 0.0\nsamples = 1\nvalue = 154000.0", fillcolor="#e581392a"] ;
637 -> 639 ;
640 [label="GarageArea <= 456.5\nmse = 16500000.0\nsamples = 3\nvalue = 156000.0", fillcolor="#e581392b"] ;
630 -> 640 ;
641 [label="mse = 0.0\nsamples = 1\nvalue = 163000.0", fillcolor="#e581392d"] ;
640 -> 641 ;
642 [label="BsmtExposure_Mn <= 0.5\nmse = 222222.22\nsamples = 2\nvalue = 153666.67", fillcolor="#e581392a"] ;
640 -> 642 ;
643 [label="mse = 0.0\nsamples = 1\nvalue = 153000.0", fillcolor="#e581392a"] ;
642 -> 643 ;
644 [label="mse = 0.0\nsamples = 1\nvalue = 154000.0", fillcolor="#e581392a"] ;
642 -> 644 ;
645 [label="GarageArea <= 516.0\nmse = 61000000.0\nsamples = 9\nvalue = 158500.0", fillcolor="#e581392c"] ;
629 -> 645 ;
646 [label="GarageArea <= 416.0\nmse = 42719008.26\nsamples = 8\nvalue = 159909.09", fillcolor="#e581392c"] ;
645 -> 646 ;
647 [label="BsmtFinSF1 <= 881.5\nmse = 24750000.0\nsamples = 3\nvalue = 153500.0", fillcolor="#e581392a"] ;
646 -> 647 ;
648 [label="Fireplaces <= 1.5\nmse = 888888.89\nsamples = 2\nvalue = 156333.33", fillcolor="#e581392b"] ;
647 -> 648 ;
649 [label="mse = 0.0\nsamples = 1\nvalue = 155000.0", fillcolor="#e581392a"] ;
648 -> 649 ;
650 [label="mse = 0.0\nsamples = 1\nvalue = 157000.0", fillcolor="#e581392b"] ;
648 -> 650 ;
651 [label="mse = 0.0\nsamples = 1\nvalue = 145000.0", fillcolor="#e5813927"] ;
647 -> 651 ;
652 [label="BsmtFinSF1 <= 597.0\nmse = 16102040.82\nsamples = 5\nvalue = 163571.43", fillcolor="#e581392d"] ;
646 -> 652 ;
653 [label="GarageCars <= 1.5\nmse = 1260000.0\nsamples = 3\nvalue = 161200.0", fillcolor="#e581392d"] ;
652 -> 653 ;
654 [label="mse = 0.0\nsamples = 1\nvalue = 160000.0", fillcolor="#e581392c"] ;
653 -> 654 ;
655 [label="ScreenPorch <= 98.5\nmse = 500000.0\nsamples = 2\nvalue = 162000.0", fillcolor="#e581392d"] ;
653 -> 655 ;
656 [label="mse = 0.0\nsamples = 1\nvalue = 163000.0", fillcolor="#e581392d"] ;
655 -> 656 ;
657 [label="mse = 0.0\nsamples = 1\nvalue = 161500.0", fillcolor="#e581392d"] ;
655 -> 657 ;
658 [label="LotFrontage <= 74.0\nmse = 4000000.0\nsamples = 2\nvalue = 169500.0", fillcolor="#e5813930"] ;
652 -> 658 ;
659 [label="mse = 0.0\nsamples = 1\nvalue = 167500.0", fillcolor="#e581392f"] ;
658 -> 659 ;
660 [label="mse = 0.0\nsamples = 1\nvalue = 171500.0", fillcolor="#e5813930"] ;
658 -> 660 ;
661 [label="mse = 0.0\nsamples = 1\nvalue = 143000.0", fillcolor="#e5813926"] ;
645 -> 661 ;
662 [label="mse = 0.0\nsamples = 1\nvalue = 82500.0", fillcolor="#e5813911"] ;
580 -> 662 ;
663 [label="LotArea <= 12420.5\nmse = 338027130.28\nsamples = 17\nvalue = 167863.68", fillcolor="#e581392f"] ;
579 -> 663 ;
664 [label="YearBuilt <= 1984.5\nmse = 194043745.63\nsamples = 16\nvalue = 165625.8", fillcolor="#e581392e"] ;
663 -> 664 ;
665 [label="Functional_Mod <= 0.5\nmse = 136696009.11\nsamples = 8\nvalue = 155492.12", fillcolor="#e581392b"] ;
664 -> 665 ;
666 [label="TotalBsmtSF <= 1185.0\nmse = 63642707.53\nsamples = 7\nvalue = 157758.27", fillcolor="#e581392b"] ;
665 -> 666 ;
667 [label="Fireplaces <= 0.5\nmse = 30660904.22\nsamples = 4\nvalue = 149695.67", fillcolor="#e5813929"] ;
666 -> 667 ;
668 [label="mse = 0.0\nsamples = 1\nvalue = 137500.0", fillcolor="#e5813924"] ;
667 -> 668 ;
669 [label="Condition1_Feedr <= 0.5\nmse = 1096856.56\nsamples = 3\nvalue = 152134.8", fillcolor="#e5813929"] ;
667 -> 669 ;
670 [label="SaleCondition_Family <= 0.5\nmse = 222222.22\nsamples = 2\nvalue = 151333.33", fillcolor="#e5813929"] ;
669 -> 670 ;
671 [label="mse = 0.0\nsamples = 1\nvalue = 151000.0", fillcolor="#e5813929"] ;
670 -> 671 ;
672 [label="mse = 0.0\nsamples = 1\nvalue = 152000.0", fillcolor="#e5813929"] ;
670 -> 672 ;
673 [label="mse = 0.0\nsamples = 1\nvalue = 153337.0", fillcolor="#e581392a"] ;
669 -> 673 ;
674 [label="LotShape_Reg <= 0.5\nmse = 13402222.22\nsamples = 3\nvalue = 163133.33", fillcolor="#e581392d"] ;
666 -> 674 ;
675 [label="TotalBsmtSF <= 1313.0\nmse = 3062500.0\nsamples = 2\nvalue = 160750.0", fillcolor="#e581392c"] ;
674 -> 675 ;
676 [label="mse = 0.0\nsamples = 1\nvalue = 162500.0", fillcolor="#e581392d"] ;
675 -> 676 ;
677 [label="mse = 0.0\nsamples = 1\nvalue = 159000.0", fillcolor="#e581392c"] ;
675 -> 677 ;
678 [label="mse = 0.0\nsamples = 1\nvalue = 167900.0", fillcolor="#e581392f"] ;
674 -> 678 ;
679 [label="mse = 0.0\nsamples = 1\nvalue = 121500.0", fillcolor="#e581391f"] ;
665 -> 679 ;
680 [label="BsmtUnfSF <= 449.5\nmse = 8094948.98\nsamples = 8\nvalue = 177207.14", fillcolor="#e5813932"] ;
664 -> 680 ;
681 [label="Foundation_CBlock <= 0.5\nmse = 547654.32\nsamples = 5\nvalue = 179211.11", fillcolor="#e5813933"] ;
680 -> 681 ;
682 [label="mse = 0.0\nsamples = 1\nvalue = 177500.0", fillcolor="#e5813932"] ;
681 -> 682 ;
683 [label="GrLivArea <= 1296.0\nmse = 204375.0\nsamples = 4\nvalue = 179425.0", fillcolor="#e5813933"] ;
681 -> 683 ;
684 [label="MSSubClass <= 55.0\nmse = 9600.0\nsamples = 2\nvalue = 179080.0", fillcolor="#e5813933"] ;
683 -> 684 ;
685 [label="mse = 0.0\nsamples = 1\nvalue = 179200.0", fillcolor="#e5813933"] ;
684 -> 685 ;
686 [label="mse = 0.0\nsamples = 1\nvalue = 179000.0", fillcolor="#e5813933"] ;
684 -> 686 ;
687 [label="mse = 0.0\nsamples = 2\nvalue = 180000.0", fillcolor="#e5813933"] ;
683 -> 687 ;
688 [label="Fireplaces <= 0.5\nmse = 1440000.0\nsamples = 3\nvalue = 173600.0", fillcolor="#e5813931"] ;
680 -> 688 ;
689 [label="mse = 0.0\nsamples = 2\nvalue = 173000.0", fillcolor="#e5813931"] ;
688 -> 689 ;
690 [label="mse = 0.0\nsamples = 1\nvalue = 176000.0", fillcolor="#e5813932"] ;
688 -> 690 ;
691 [label="mse = 0.0\nsamples = 1\nvalue = 235000.0", fillcolor="#e5813947"] ;
663 -> 691 ;
692 [label="RoofMatl_Membran <= 0.5\nmse = 564608062.66\nsamples = 35\nvalue = 187879.06", fillcolor="#e5813936"] ;
570 -> 692 ;
693 [label="GarageFinish_Unf <= 0.5\nmse = 405408857.52\nsamples = 34\nvalue = 184456.45", fillcolor="#e5813935"] ;
692 -> 693 ;
694 [label="GarageArea <= 481.0\nmse = 284441802.63\nsamples = 26\nvalue = 190948.73", fillcolor="#e5813937"] ;
693 -> 694 ;
695 [label="GarageFinish_Fin <= 0.5\nmse = 116310056.0\nsamples = 10\nvalue = 177333.0", fillcolor="#e5813932"] ;
694 -> 695 ;
696 [label="YearBuilt <= 2003.5\nmse = 65559691.36\nsamples = 5\nvalue = 183655.56", fillcolor="#e5813935"] ;
695 -> 696 ;
697 [label="OverallQual <= 6.5\nmse = 6125000.0\nsamples = 2\nvalue = 173500.0", fillcolor="#e5813931"] ;
696 -> 697 ;
698 [label="mse = 0.0\nsamples = 1\nvalue = 177000.0", fillcolor="#e5813932"] ;
697 -> 698 ;
699 [label="mse = 0.0\nsamples = 1\nvalue = 171750.0", fillcolor="#e5813930"] ;
697 -> 699 ;
700 [label="LotFrontage <= 61.5\nmse = 17925555.56\nsamples = 3\nvalue = 188733.33", fillcolor="#e5813936"] ;
696 -> 700 ;
701 [label="mse = 0.0\nsamples = 1\nvalue = 194700.0", fillcolor="#e5813938"] ;
700 -> 701 ;
702 [label="YearRemodAdd <= 2007.0\nmse = 187500.0\nsamples = 2\nvalue = 185750.0", fillcolor="#e5813935"] ;
700 -> 702 ;
703 [label="mse = 0.0\nsamples = 1\nvalue = 185000.0", fillcolor="#e5813935"] ;
702 -> 703 ;
704 [label="mse = 0.0\nsamples = 1\nvalue = 186000.0", fillcolor="#e5813935"] ;
702 -> 704 ;
705 [label="Neighborhood_Gilbert <= 0.5\nmse = 42530445.14\nsamples = 5\nvalue = 167849.17", fillcolor="#e581392f"] ;
695 -> 705 ;
706 [label="SaleType_WD <= 0.5\nmse = 7862454.69\nsamples = 4\nvalue = 163531.25", fillcolor="#e581392d"] ;
705 -> 706 ;
707 [label="YearRemodAdd <= 2005.5\nmse = 1265625.0\nsamples = 2\nvalue = 166115.0", fillcolor="#e581392e"] ;
706 -> 707 ;
708 [label="mse = 0.0\nsamples = 1\nvalue = 164990.0", fillcolor="#e581392e"] ;
707 -> 708 ;
709 [label="mse = 0.0\nsamples = 1\nvalue = 167240.0", fillcolor="#e581392f"] ;
707 -> 709 ;
710 [label="BsmtQual_Ex <= 0.5\nmse = 1107756.25\nsamples = 2\nvalue = 160947.5", fillcolor="#e581392d"] ;
706 -> 710 ;
711 [label="mse = 0.0\nsamples = 1\nvalue = 159895.0", fillcolor="#e581392c"] ;
710 -> 711 ;
712 [label="mse = 0.0\nsamples = 1\nvalue = 162000.0", fillcolor="#e581392d"] ;
710 -> 712 ;
713 [label="mse = 0.0\nsamples = 1\nvalue = 176485.0", fillcolor="#e5813932"] ;
705 -> 713 ;
714 [label="YearRemodAdd <= 2007.5\nmse = 186493627.15\nsamples = 16\nvalue = 200232.18", fillcolor="#e581393a"] ;
694 -> 714 ;
715 [label="BsmtFinSF1 <= 685.0\nmse = 73708925.75\nsamples = 14\nvalue = 195847.79", fillcolor="#e5813939"] ;
714 -> 715 ;
716 [label="Neighborhood_CollgCr <= 0.5\nmse = 35988449.06\nsamples = 6\nvalue = 188734.22", fillcolor="#e5813936"] ;
715 -> 716 ;
717 [label="Exterior2nd_VinylSd <= 0.5\nmse = 4410468.75\nsamples = 3\nvalue = 182212.5", fillcolor="#e5813934"] ;
716 -> 717 ;
718 [label="mse = 0.0\nsamples = 2\nvalue = 181000.0", fillcolor="#e5813934"] ;
717 -> 718 ;
719 [label="mse = 0.0\nsamples = 1\nvalue = 185850.0", fillcolor="#e5813935"] ;
717 -> 719 ;
720 [label="BsmtUnfSF <= 1263.0\nmse = 3513.84\nsamples = 3\nvalue = 193951.6", fillcolor="#e5813938"] ;
716 -> 720 ;
721 [label="mse = 0.0\nsamples = 2\nvalue = 194000.0", fillcolor="#e5813938"] ;
720 -> 721 ;
722 [label="mse = 0.0\nsamples = 1\nvalue = 193879.0", fillcolor="#e5813938"] ;
720 -> 722 ;
723 [label="TotRmsAbvGrd <= 5.5\nmse = 21126500.0\nsamples = 8\nvalue = 202250.0", fillcolor="#e581393b"] ;
715 -> 723 ;
724 [label="YearRemodAdd <= 2006.5\nmse = 2580000.0\nsamples = 3\nvalue = 197800.0", fillcolor="#e581393a"] ;
723 -> 724 ;
725 [label="YearRemodAdd <= 2005.5\nmse = 562500.0\nsamples = 2\nvalue = 196750.0", fillcolor="#e5813939"] ;
724 -> 725 ;
726 [label="mse = 0.0\nsamples = 1\nvalue = 196000.0", fillcolor="#e5813939"] ;
725 -> 726 ;
727 [label="mse = 0.0\nsamples = 1\nvalue = 197500.0", fillcolor="#e5813939"] ;
725 -> 727 ;
728 [label="mse = 0.0\nsamples = 1\nvalue = 199900.0", fillcolor="#e581393a"] ;
724 -> 728 ;
729 [label="GarageYrBlt <= 2006.5\nmse = 16951020.41\nsamples = 5\nvalue = 204157.14", fillcolor="#e581393c"] ;
723 -> 729 ;
730 [label="SaleType_WD <= 0.5\nmse = 1642222.22\nsamples = 4\nvalue = 205766.67", fillcolor="#e581393c"] ;
729 -> 730 ;
731 [label="mse = 0.0\nsamples = 1\nvalue = 203000.0", fillcolor="#e581393b"] ;
730 -> 731 ;
732 [label="FireplaceQu_Gd <= 0.5\nmse = 133600.0\nsamples = 3\nvalue = 206320.0", fillcolor="#e581393d"] ;
730 -> 732 ;
733 [label="BldgType_Duplex <= 0.5\nmse = 22500.0\nsamples = 2\nvalue = 206150.0", fillcolor="#e581393d"] ;
732 -> 733 ;
734 [label="mse = 0.0\nsamples = 1\nvalue = 206000.0", fillcolor="#e581393c"] ;
733 -> 734 ;
735 [label="mse = 0.0\nsamples = 1\nvalue = 206300.0", fillcolor="#e581393d"] ;
733 -> 735 ;
736 [label="mse = 0.0\nsamples = 1\nvalue = 207000.0", fillcolor="#e581393d"] ;
732 -> 736 ;
737 [label="mse = 0.0\nsamples = 1\nvalue = 194500.0", fillcolor="#e5813938"] ;
729 -> 737 ;
738 [label="SaleType_New <= 0.5\nmse = 8000000.0\nsamples = 2\nvalue = 228000.0", fillcolor="#e5813944"] ;
714 -> 738 ;
739 [label="mse = 0.0\nsamples = 1\nvalue = 230000.0", fillcolor="#e5813945"] ;
738 -> 739 ;
740 [label="mse = 0.0\nsamples = 1\nvalue = 224000.0", fillcolor="#e5813943"] ;
738 -> 740 ;
741 [label="WoodDeckSF <= 19.0\nmse = 120003025.0\nsamples = 8\nvalue = 160435.0", fillcolor="#e581392c"] ;
693 -> 741 ;
742 [label="HeatingQC_Ex <= 0.5\nmse = 20533367.35\nsamples = 5\nvalue = 153764.29", fillcolor="#e581392a"] ;
741 -> 742 ;
743 [label="MoSold <= 5.5\nmse = 8491718.75\nsamples = 3\nvalue = 150337.5", fillcolor="#e5813929"] ;
742 -> 743 ;
744 [label="mse = 0.0\nsamples = 1\nvalue = 153000.0", fillcolor="#e581392a"] ;
743 -> 744 ;
745 [label="BsmtExposure_Mn <= 0.5\nmse = 2805625.0\nsamples = 2\nvalue = 147675.0", fillcolor="#e5813928"] ;
743 -> 745 ;
746 [label="mse = 0.0\nsamples = 1\nvalue = 149350.0", fillcolor="#e5813928"] ;
745 -> 746 ;
747 [label="mse = 0.0\nsamples = 1\nvalue = 146000.0", fillcolor="#e5813927"] ;
745 -> 747 ;
748 [label="Foundation_CBlock <= 0.5\nmse = 55555.56\nsamples = 2\nvalue = 158333.33", fillcolor="#e581392c"] ;
742 -> 748 ;
749 [label="mse = 0.0\nsamples = 1\nvalue = 158000.0", fillcolor="#e581392b"] ;
748 -> 749 ;
750 [label="mse = 0.0\nsamples = 1\nvalue = 158500.0", fillcolor="#e581392c"] ;
748 -> 750 ;
751 [label="BedroomAbvGr <= 2.5\nmse = 6000000.0\nsamples = 3\nvalue = 176000.0", fillcolor="#e5813932"] ;
741 -> 751 ;
752 [label="mse = 0.0\nsamples = 1\nvalue = 173000.0", fillcolor="#e5813931"] ;
751 -> 752 ;
753 [label="MasVnrType_BrkFace <= 0.5\nmse = 2250000.0\nsamples = 2\nvalue = 177500.0", fillcolor="#e5813932"] ;
751 -> 753 ;
754 [label="mse = 0.0\nsamples = 1\nvalue = 176000.0", fillcolor="#e5813932"] ;
753 -> 754 ;
755 [label="mse = 0.0\nsamples = 1\nvalue = 179000.0", fillcolor="#e5813933"] ;
753 -> 755 ;
756 [label="mse = 0.0\nsamples = 1\nvalue = 241500.0", fillcolor="#e5813949"] ;
692 -> 756 ;
757 [label="OverallQual <= 6.5\nmse = 2172315393.74\nsamples = 371\nvalue = 189865.24", fillcolor="#e5813937"] ;
1 -> 757 ;
758 [label="Fireplaces <= 0.5\nmse = 1284279217.11\nsamples = 210\nvalue = 169326.06", fillcolor="#e581392f"] ;
757 -> 758 ;
759 [label="YearBuilt <= 1985.5\nmse = 823718554.57\nsamples = 76\nvalue = 145975.41", fillcolor="#e5813927"] ;
758 -> 759 ;
760 [label="BsmtFinSF1 <= 181.0\nmse = 518802147.88\nsamples = 63\nvalue = 137106.76", fillcolor="#e5813924"] ;
759 -> 760 ;
761 [label="Condition1_PosN <= 0.5\nmse = 335779807.0\nsamples = 37\nvalue = 127971.41", fillcolor="#e5813921"] ;
760 -> 761 ;
762 [label="Neighborhood_Crawfor <= 0.5\nmse = 208011899.22\nsamples = 36\nvalue = 126453.37", fillcolor="#e5813920"] ;
761 -> 762 ;
763 [label="HalfBath <= 0.5\nmse = 165000048.53\nsamples = 34\nvalue = 125308.27", fillcolor="#e5813920"] ;
762 -> 763 ;
764 [label="Exterior2nd_Wd Sdng <= 0.5\nmse = 159176083.69\nsamples = 29\nvalue = 122487.61", fillcolor="#e581391f"] ;
763 -> 764 ;
765 [label="TotRmsAbvGrd <= 11.5\nmse = 112728827.04\nsamples = 21\nvalue = 126041.57", fillcolor="#e5813920"] ;
764 -> 765 ;
766 [label="HeatingQC_TA <= 0.5\nmse = 93971350.17\nsamples = 20\nvalue = 124456.12", fillcolor="#e5813920"] ;
765 -> 766 ;
767 [label="RoofStyle_Gable <= 0.5\nmse = 71296768.36\nsamples = 9\nvalue = 130363.12", fillcolor="#e5813922"] ;
766 -> 767 ;
768 [label="GarageYrBlt <= 1937.5\nmse = 12000000.0\nsamples = 2\nvalue = 119000.0", fillcolor="#e581391e"] ;
767 -> 768 ;
769 [label="mse = 0.0\nsamples = 1\nvalue = 125000.0", fillcolor="#e5813920"] ;
768 -> 769 ;
770 [label="mse = 0.0\nsamples = 1\nvalue = 117000.0", fillcolor="#e581391d"] ;
768 -> 770 ;
771 [label="PavedDrive_Y <= 0.5\nmse = 33675420.14\nsamples = 7\nvalue = 134150.83", fillcolor="#e5813923"] ;
767 -> 771 ;
772 [label="mse = 0.0\nsamples = 1\nvalue = 122500.0", fillcolor="#e581391f"] ;
771 -> 772 ;
773 [label="BsmtUnfSF <= 1740.0\nmse = 7832444.0\nsamples = 6\nvalue = 136481.0", fillcolor="#e5813924"] ;
771 -> 773 ;
774 [label="Foundation_BrkTil <= 0.5\nmse = 3408879.69\nsamples = 5\nvalue = 135351.25", fillcolor="#e5813923"] ;
773 -> 774 ;
775 [label="GarageArea <= 328.0\nmse = 848672.22\nsamples = 3\nvalue = 136301.67", fillcolor="#e5813924"] ;
774 -> 775 ;
776 [label="mse = 0.0\nsamples = 1\nvalue = 135000.0", fillcolor="#e5813923"] ;
775 -> 776 ;
777 [label="Exterior2nd_AsbShng <= 0.5\nmse = 2256.25\nsamples = 2\nvalue = 136952.5", fillcolor="#e5813924"] ;
775 -> 777 ;
778 [label="mse = 0.0\nsamples = 1\nvalue = 136905.0", fillcolor="#e5813924"] ;
777 -> 778 ;
779 [label="mse = 0.0\nsamples = 1\nvalue = 137000.0", fillcolor="#e5813924"] ;
777 -> 779 ;
780 [label="Neighborhood_OldTown <= 0.5\nmse = 250000.0\nsamples = 2\nvalue = 132500.0", fillcolor="#e5813922"] ;
774 -> 780 ;
781 [label="mse = 0.0\nsamples = 1\nvalue = 133000.0", fillcolor="#e5813923"] ;
780 -> 781 ;
782 [label="mse = 0.0\nsamples = 1\nvalue = 132000.0", fillcolor="#e5813922"] ;
780 -> 782 ;
783 [label="mse = 0.0\nsamples = 1\nvalue = 141000.0", fillcolor="#e5813925"] ;
773 -> 783 ;
784 [label="GrLivArea <= 1763.0\nmse = 46860633.98\nsamples = 11\nvalue = 118549.12", fillcolor="#e581391d"] ;
766 -> 784 ;
785 [label="BsmtUnfSF <= 1620.0\nmse = 24503439.42\nsamples = 8\nvalue = 121565.5", fillcolor="#e581391f"] ;
784 -> 785 ;
786 [label="GarageYrBlt <= 1972.75\nmse = 8831607.6\nsamples = 7\nvalue = 120344.18", fillcolor="#e581391e"] ;
785 -> 786 ;
787 [label="mse = 0.0\nsamples = 2\nvalue = 124000.0", fillcolor="#e581391f"] ;
786 -> 787 ;
788 [label="HouseStyle_1Story <= 0.5\nmse = 1877010.12\nsamples = 5\nvalue = 118255.14", fillcolor="#e581391d"] ;
786 -> 788 ;
789 [label="mse = 0.0\nsamples = 1\nvalue = 115000.0", fillcolor="#e581391c"] ;
788 -> 789 ;
790 [label="LotFrontage <= 81.02\nmse = 129520.56\nsamples = 4\nvalue = 118797.67", fillcolor="#e581391e"] ;
788 -> 790 ;
791 [label="Exterior1st_HdBoard <= 0.5\nmse = 2719.36\nsamples = 3\nvalue = 118957.2", fillcolor="#e581391e"] ;
790 -> 791 ;
792 [label="mse = 0.0\nsamples = 1\nvalue = 118858.0", fillcolor="#e581391e"] ;
791 -> 792 ;
793 [label="Foundation_CBlock <= 0.5\nmse = 324.0\nsamples = 2\nvalue = 118982.0", fillcolor="#e581391e"] ;
791 -> 793 ;
794 [label="mse = 0.0\nsamples = 1\nvalue = 118964.0", fillcolor="#e581391e"] ;
793 -> 794 ;
795 [label="mse = 0.0\nsamples = 1\nvalue = 119000.0", fillcolor="#e581391e"] ;
793 -> 795 ;
796 [label="mse = 0.0\nsamples = 1\nvalue = 118000.0", fillcolor="#e581391d"] ;
790 -> 796 ;
797 [label="mse = 0.0\nsamples = 1\nvalue = 135000.0", fillcolor="#e5813923"] ;
785 -> 797 ;
798 [label="CentralAir_Y <= 0.5\nmse = 4750000.0\nsamples = 3\nvalue = 109500.0", fillcolor="#e581391a"] ;
784 -> 798 ;
799 [label="mse = 0.0\nsamples = 1\nvalue = 106000.0", fillcolor="#e5813919"] ;
798 -> 799 ;
800 [label="MoSold <= 5.5\nmse = 888888.89\nsamples = 2\nvalue = 110666.67", fillcolor="#e581391b"] ;
798 -> 800 ;
801 [label="mse = 0.0\nsamples = 1\nvalue = 112000.0", fillcolor="#e581391b"] ;
800 -> 801 ;
802 [label="mse = 0.0\nsamples = 1\nvalue = 110000.0", fillcolor="#e581391a"] ;
800 -> 802 ;
803 [label="mse = 0.0\nsamples = 1\nvalue = 142953.0", fillcolor="#e5813926"] ;
765 -> 803 ;
804 [label="MSSubClass <= 140.0\nmse = 99666666.67\nsamples = 8\nvalue = 108666.67", fillcolor="#e581391a"] ;
764 -> 804 ;
805 [label="GarageFinish_Unf <= 0.5\nmse = 63125000.0\nsamples = 7\nvalue = 111000.0", fillcolor="#e581391b"] ;
804 -> 805 ;
806 [label="MoSold <= 9.5\nmse = 5046875.0\nsamples = 3\nvalue = 103875.0", fillcolor="#e5813918"] ;
805 -> 806 ;
807 [label="YrSold <= 2007.5\nmse = 888888.89\nsamples = 2\nvalue = 102666.67", fillcolor="#e5813918"] ;
806 -> 807 ;
808 [label="mse = 0.0\nsamples = 1\nvalue = 102000.0", fillcolor="#e5813918"] ;
807 -> 808 ;
809 [label="mse = 0.0\nsamples = 1\nvalue = 104000.0", fillcolor="#e5813918"] ;
807 -> 809 ;
810 [label="mse = 0.0\nsamples = 1\nvalue = 107500.0", fillcolor="#e581391a"] ;
806 -> 810 ;
811 [label="SaleType_COD <= 0.5\nmse = 19671875.0\nsamples = 4\nvalue = 118125.0", fillcolor="#e581391d"] ;
805 -> 811 ;
812 [label="YearBuilt <= 1915.0\nmse = 8166666.67\nsamples = 3\nvalue = 116000.0", fillcolor="#e581391d"] ;
811 -> 812 ;
813 [label="BsmtCond_Fa <= 0.5\nmse = 250000.0\nsamples = 2\nvalue = 118000.0", fillcolor="#e581391d"] ;
812 -> 813 ;
814 [label="mse = 0.0\nsamples = 1\nvalue = 117500.0", fillcolor="#e581391d"] ;
813 -> 814 ;
815 [label="mse = 0.0\nsamples = 1\nvalue = 118500.0", fillcolor="#e581391d"] ;
813 -> 815 ;
816 [label="mse = 0.0\nsamples = 1\nvalue = 112000.0", fillcolor="#e581391b"] ;
812 -> 816 ;
817 [label="mse = 0.0\nsamples = 1\nvalue = 124500.0", fillcolor="#e5813920"] ;
811 -> 817 ;
818 [label="mse = 0.0\nsamples = 1\nvalue = 90000.0", fillcolor="#e5813913"] ;
804 -> 818 ;
819 [label="CentralAir_N <= 0.5\nmse = 29173553.72\nsamples = 5\nvalue = 136590.91", fillcolor="#e5813924"] ;
763 -> 819 ;
820 [label="GarageArea <= 255.5\nmse = 2058593.75\nsamples = 4\nvalue = 139812.5", fillcolor="#e5813925"] ;
819 -> 820 ;
821 [label="BldgType_1Fam <= 0.5\nmse = 250000.0\nsamples = 2\nvalue = 138500.0", fillcolor="#e5813925"] ;
820 -> 821 ;
822 [label="mse = 0.0\nsamples = 1\nvalue = 139000.0", fillcolor="#e5813925"] ;
821 -> 822 ;
823 [label="mse = 0.0\nsamples = 1\nvalue = 138000.0", fillcolor="#e5813924"] ;
821 -> 823 ;
824 [label="BsmtFinType1_BLQ <= 0.5\nmse = 421875.0\nsamples = 2\nvalue = 141125.0", fillcolor="#e5813925"] ;
820 -> 824 ;
825 [label="mse = 0.0\nsamples = 1\nvalue = 141500.0", fillcolor="#e5813926"] ;
824 -> 825 ;
826 [label="mse = 0.0\nsamples = 1\nvalue = 140000.0", fillcolor="#e5813925"] ;
824 -> 826 ;
827 [label="mse = 0.0\nsamples = 1\nvalue = 128000.0", fillcolor="#e5813921"] ;
819 -> 827 ;
828 [label="BsmtExposure_Mn <= 0.5\nmse = 363150192.25\nsamples = 2\nvalue = 157943.5", fillcolor="#e581392b"] ;
762 -> 828 ;
829 [label="mse = 0.0\nsamples = 1\nvalue = 177000.0", fillcolor="#e5813932"] ;
828 -> 829 ;
830 [label="mse = 0.0\nsamples = 1\nvalue = 138887.0", fillcolor="#e5813925"] ;
828 -> 830 ;
831 [label="mse = 0.0\nsamples = 1\nvalue = 214500.0", fillcolor="#e581393f"] ;
761 -> 831 ;
832 [label="YearBuilt <= 1963.5\nmse = 497150237.75\nsamples = 26\nvalue = 149722.24", fillcolor="#e5813929"] ;
760 -> 832 ;
833 [label="OverallQual <= 4.0\nmse = 396582401.69\nsamples = 17\nvalue = 141617.8", fillcolor="#e5813926"] ;
832 -> 833 ;
834 [label="mse = 0.0\nsamples = 1\nvalue = 95000.0", fillcolor="#e5813915"] ;
833 -> 834 ;
835 [label="BsmtUnfSF <= 411.5\nmse = 258591914.3\nsamples = 16\nvalue = 144947.64", fillcolor="#e5813927"] ;
833 -> 835 ;
836 [label="Functional_Min2 <= 0.5\nmse = 18449600.0\nsamples = 4\nvalue = 122180.0", fillcolor="#e581391f"] ;
835 -> 836 ;
837 [label="GarageType_Detchd <= 0.5\nmse = 935555.56\nsamples = 3\nvalue = 125633.33", fillcolor="#e5813920"] ;
836 -> 837 ;
838 [label="mse = 0.0\nsamples = 1\nvalue = 127000.0", fillcolor="#e5813920"] ;
837 -> 838 ;
839 [label="SaleCondition_Abnorml <= 0.5\nmse = 2500.0\nsamples = 2\nvalue = 124950.0", fillcolor="#e5813920"] ;
837 -> 839 ;
840 [label="mse = 0.0\nsamples = 1\nvalue = 124900.0", fillcolor="#e5813920"] ;
839 -> 840 ;
841 [label="mse = 0.0\nsamples = 1\nvalue = 125000.0", fillcolor="#e5813920"] ;
839 -> 841 ;
842 [label="mse = 0.0\nsamples = 1\nvalue = 117000.0", fillcolor="#e581391d"] ;
836 -> 842 ;
843 [label="BsmtFinType1_LwQ <= 0.5\nmse = 173611172.46\nsamples = 12\nvalue = 149897.13", fillcolor="#e5813929"] ;
835 -> 843 ;
844 [label="EnclosedPorch <= 28.0\nmse = 62211590.65\nsamples = 11\nvalue = 147619.73", fillcolor="#e5813928"] ;
843 -> 844 ;
845 [label="Exterior1st_MetalSd <= 0.5\nmse = 24773112.24\nsamples = 8\nvalue = 142578.57", fillcolor="#e5813926"] ;
844 -> 845 ;
846 [label="GarageYrBlt <= 1966.25\nmse = 186400.0\nsamples = 3\nvalue = 136760.0", fillcolor="#e5813924"] ;
845 -> 846 ;
847 [label="OverallQual <= 5.5\nmse = 1875.0\nsamples = 2\nvalue = 136975.0", fillcolor="#e5813924"] ;
846 -> 847 ;
848 [label="mse = 0.0\nsamples = 1\nvalue = 137000.0", fillcolor="#e5813924"] ;
847 -> 848 ;
849 [label="mse = 0.0\nsamples = 1\nvalue = 136900.0", fillcolor="#e5813924"] ;
847 -> 849 ;
850 [label="mse = 0.0\nsamples = 1\nvalue = 135900.0", fillcolor="#e5813924"] ;
846 -> 850 ;
851 [label="LotConfig_Corner <= 0.5\nmse = 9174320.99\nsamples = 5\nvalue = 145811.11", fillcolor="#e5813927"] ;
845 -> 851 ;
852 [label="1stFlrSF <= 926.5\nmse = 187500.0\nsamples = 4\nvalue = 144750.0", fillcolor="#e5813927"] ;
851 -> 852 ;
853 [label="mse = 0.0\nsamples = 1\nvalue = 144000.0", fillcolor="#e5813927"] ;
852 -> 853 ;
854 [label="mse = 0.0\nsamples = 3\nvalue = 145000.0", fillcolor="#e5813927"] ;
852 -> 854 ;
855 [label="mse = 0.0\nsamples = 1\nvalue = 154300.0", fillcolor="#e581392a"] ;
851 -> 855 ;
856 [label="Exterior2nd_VinylSd <= 0.5\nmse = 5427651.44\nsamples = 3\nvalue = 156441.75", fillcolor="#e581392b"] ;
844 -> 856 ;
857 [label="Exterior2nd_MetalSd <= 0.5\nmse = 376504.96\nsamples = 2\nvalue = 158206.8", fillcolor="#e581392c"] ;
856 -> 857 ;
858 [label="mse = 0.0\nsamples = 1\nvalue = 159434.0", fillcolor="#e581392c"] ;
857 -> 858 ;
859 [label="mse = 0.0\nsamples = 1\nvalue = 157900.0", fillcolor="#e581392b"] ;
857 -> 859 ;
860 [label="mse = 0.0\nsamples = 1\nvalue = 153500.0", fillcolor="#e581392a"] ;
856 -> 860 ;
861 [label="mse = 0.0\nsamples = 1\nvalue = 200000.0", fillcolor="#e581393a"] ;
843 -> 861 ;
862 [label="YrSold <= 2007.5\nmse = 173853055.56\nsamples = 9\nvalue = 169983.33", fillcolor="#e5813930"] ;
832 -> 862 ;
863 [label="GarageArea <= 417.0\nmse = 1166666.67\nsamples = 3\nvalue = 188500.0", fillcolor="#e5813936"] ;
862 -> 863 ;
864 [label="mse = 0.0\nsamples = 1\nvalue = 190000.0", fillcolor="#e5813937"] ;
863 -> 864 ;
865 [label="YearRemodAdd <= 1991.5\nmse = 62500.0\nsamples = 2\nvalue = 187750.0", fillcolor="#e5813936"] ;
863 -> 865 ;
866 [label="mse = 0.0\nsamples = 1\nvalue = 188000.0", fillcolor="#e5813936"] ;
865 -> 866 ;
867 [label="mse = 0.0\nsamples = 1\nvalue = 187500.0", fillcolor="#e5813936"] ;
865 -> 867 ;
868 [label="LotArea <= 10852.0\nmse = 79029876.54\nsamples = 6\nvalue = 163811.11", fillcolor="#e581392e"] ;
862 -> 868 ;
869 [label="LotArea <= 9445.0\nmse = 3945306.12\nsamples = 4\nvalue = 168242.86", fillcolor="#e581392f"] ;
868 -> 869 ;
870 [label="mse = 0.0\nsamples = 1\nvalue = 173000.0", fillcolor="#e5813931"] ;
869 -> 870 ;
871 [label="1stFlrSF <= 1142.0\nmse = 202500.0\nsamples = 3\nvalue = 167450.0", fillcolor="#e581392f"] ;
869 -> 871 ;
872 [label="mse = 0.0\nsamples = 1\nvalue = 167900.0", fillcolor="#e581392f"] ;
871 -> 872 ;
873 [label="mse = 0.0\nsamples = 2\nvalue = 167000.0", fillcolor="#e581392f"] ;
871 -> 873 ;
874 [label="Exterior2nd_HdBoard <= 0.5\nmse = 32490000.0\nsamples = 2\nvalue = 148300.0", fillcolor="#e5813928"] ;
868 -> 874 ;
875 [label="mse = 0.0\nsamples = 1\nvalue = 154000.0", fillcolor="#e581392a"] ;
874 -> 875 ;
876 [label="mse = 0.0\nsamples = 1\nvalue = 142600.0", fillcolor="#e5813926"] ;
874 -> 876 ;
877 [label="BsmtFinSF1 <= 444.0\nmse = 320647485.82\nsamples = 13\nvalue = 184534.78", fillcolor="#e5813935"] ;
759 -> 877 ;
878 [label="MSZoning_RM <= 0.5\nmse = 156564266.67\nsamples = 8\nvalue = 174020.0", fillcolor="#e5813931"] ;
877 -> 878 ;
879 [label="Exterior1st_HdBoard <= 0.5\nmse = 19449438.78\nsamples = 7\nvalue = 177164.29", fillcolor="#e5813932"] ;
878 -> 879 ;
880 [label="LotFrontage <= 67.52\nmse = 3880208.33\nsamples = 6\nvalue = 175525.0", fillcolor="#e5813932"] ;
879 -> 880 ;
881 [label="TotRmsAbvGrd <= 6.5\nmse = 2318367.35\nsamples = 4\nvalue = 174185.71", fillcolor="#e5813931"] ;
880 -> 881 ;
882 [label="BsmtFinType1_GLQ <= 0.5\nmse = 46875.0\nsamples = 2\nvalue = 172875.0", fillcolor="#e5813931"] ;
881 -> 882 ;
883 [label="mse = 0.0\nsamples = 1\nvalue = 173000.0", fillcolor="#e5813931"] ;
882 -> 883 ;
884 [label="mse = 0.0\nsamples = 1\nvalue = 172500.0", fillcolor="#e5813931"] ;
882 -> 884 ;
885 [label="BsmtFinSF1 <= 193.5\nmse = 2222.22\nsamples = 2\nvalue = 175933.33", fillcolor="#e5813932"] ;
881 -> 885 ;
886 [label="mse = 0.0\nsamples = 1\nvalue = 176000.0", fillcolor="#e5813932"] ;
885 -> 886 ;
887 [label="mse = 0.0\nsamples = 1\nvalue = 175900.0", fillcolor="#e5813932"] ;
885 -> 887 ;
888 [label="OpenPorchSF <= 53.5\nmse = 40000.0\nsamples = 2\nvalue = 177400.0", fillcolor="#e5813932"] ;
880 -> 888 ;
889 [label="mse = 0.0\nsamples = 1\nvalue = 177500.0", fillcolor="#e5813932"] ;
888 -> 889 ;
890 [label="mse = 0.0\nsamples = 1\nvalue = 177000.0", fillcolor="#e5813932"] ;
888 -> 890 ;
891 [label="mse = 0.0\nsamples = 1\nvalue = 187000.0", fillcolor="#e5813936"] ;
879 -> 891 ;
892 [label="mse = 0.0\nsamples = 1\nvalue = 130000.0", fillcolor="#e5813922"] ;
878 -> 892 ;
893 [label="OpenPorchSF <= 66.5\nmse = 32312500.0\nsamples = 5\nvalue = 204250.0", fillcolor="#e581393c"] ;
877 -> 893 ;
894 [label="MSZoning_RL <= 0.5\nmse = 20055555.56\nsamples = 2\nvalue = 210666.67", fillcolor="#e581393e"] ;
893 -> 894 ;
895 [label="mse = 0.0\nsamples = 1\nvalue = 207500.0", fillcolor="#e581393d"] ;
894 -> 895 ;
896 [label="mse = 0.0\nsamples = 1\nvalue = 217000.0", fillcolor="#e5813940"] ;
894 -> 896 ;
897 [label="LandContour_HLS <= 0.5\nmse = 140000.0\nsamples = 3\nvalue = 200400.0", fillcolor="#e581393a"] ;
893 -> 897 ;
898 [label="BsmtHalfBath <= 0.5\nmse = 55555.56\nsamples = 2\nvalue = 200666.67", fillcolor="#e581393b"] ;
897 -> 898 ;
899 [label="mse = 0.0\nsamples = 1\nvalue = 200500.0", fillcolor="#e581393b"] ;
898 -> 899 ;
900 [label="mse = 0.0\nsamples = 1\nvalue = 201000.0", fillcolor="#e581393b"] ;
898 -> 900 ;
901 [label="mse = 0.0\nsamples = 1\nvalue = 200000.0", fillcolor="#e581393a"] ;
897 -> 901 ;
902 [label="Neighborhood_Crawfor <= 0.5\nmse = 1051599558.45\nsamples = 134\nvalue = 182873.84", fillcolor="#e5813934"] ;
758 -> 902 ;
903 [label="GarageArea <= 349.0\nmse = 876109114.03\nsamples = 120\nvalue = 177492.63", fillcolor="#e5813932"] ;
902 -> 903 ;
904 [label="GrLivArea <= 1742.0\nmse = 709623905.82\nsamples = 24\nvalue = 150863.16", fillcolor="#e5813929"] ;
903 -> 904 ;
905 [label="BsmtExposure_Mn <= 0.5\nmse = 294162437.67\nsamples = 14\nvalue = 132857.89", fillcolor="#e5813923"] ;
904 -> 905 ;
906 [label="LotArea <= 14922.5\nmse = 176634256.06\nsamples = 12\nvalue = 136752.94", fillcolor="#e5813924"] ;
905 -> 906 ;
907 [label="MasVnrType_BrkFace <= 0.5\nmse = 85355585.94\nsamples = 11\nvalue = 139206.25", fillcolor="#e5813925"] ;
906 -> 907 ;
908 [label="2ndFlrSF <= 547.5\nmse = 43734488.89\nsamples = 10\nvalue = 137486.67", fillcolor="#e5813924"] ;
907 -> 908 ;
909 [label="LotArea <= 7320.0\nmse = 14036100.0\nsamples = 6\nvalue = 141530.0", fillcolor="#e5813926"] ;
908 -> 909 ;
910 [label="mse = 0.0\nsamples = 1\nvalue = 149000.0", fillcolor="#e5813928"] ;
909 -> 910 ;
911 [label="FullBath <= 1.5\nmse = 107343.75\nsamples = 5\nvalue = 139662.5", fillcolor="#e5813925"] ;
909 -> 911 ;
912 [label="Functional_Min1 <= 0.5\nmse = 2500.0\nsamples = 3\nvalue = 139950.0", fillcolor="#e5813925"] ;
911 -> 912 ;
913 [label="mse = 0.0\nsamples = 2\nvalue = 140000.0", fillcolor="#e5813925"] ;
912 -> 913 ;
914 [label="mse = 0.0\nsamples = 1\nvalue = 139900.0", fillcolor="#e5813925"] ;
912 -> 914 ;
915 [label="Exterior2nd_Wd Sdng <= 0.5\nmse = 46875.0\nsamples = 2\nvalue = 139375.0", fillcolor="#e5813925"] ;
911 -> 915 ;
916 [label="mse = 0.0\nsamples = 1\nvalue = 139500.0", fillcolor="#e5813925"] ;
915 -> 916 ;
917 [label="mse = 0.0\nsamples = 1\nvalue = 139000.0", fillcolor="#e5813925"] ;
915 -> 917 ;
918 [label="FullBath <= 1.5\nmse = 5040000.0\nsamples = 4\nvalue = 129400.0", fillcolor="#e5813921"] ;
908 -> 918 ;
919 [label="FireplaceQu_Gd <= 0.5\nmse = 1000000.0\nsamples = 2\nvalue = 132000.0", fillcolor="#e5813922"] ;
918 -> 919 ;
920 [label="mse = 0.0\nsamples = 1\nvalue = 133000.0", fillcolor="#e5813923"] ;
919 -> 920 ;
921 [label="mse = 0.0\nsamples = 1\nvalue = 131000.0", fillcolor="#e5813922"] ;
919 -> 921 ;
922 [label="GrLivArea <= 1479.5\nmse = 222222.22\nsamples = 2\nvalue = 127666.67", fillcolor="#e5813921"] ;
918 -> 922 ;
923 [label="mse = 0.0\nsamples = 1\nvalue = 127000.0", fillcolor="#e5813920"] ;
922 -> 923 ;
924 [label="mse = 0.0\nsamples = 1\nvalue = 128000.0", fillcolor="#e5813921"] ;
922 -> 924 ;
925 [label="mse = 0.0\nsamples = 1\nvalue = 165000.0", fillcolor="#e581392e"] ;
907 -> 925 ;
926 [label="mse = 0.0\nsamples = 1\nvalue = 97500.0", fillcolor="#e5813916"] ;
906 -> 926 ;
927 [label="BsmtQual_TA <= 0.5\nmse = 68062500.0\nsamples = 2\nvalue = 99750.0", fillcolor="#e5813917"] ;
905 -> 927 ;
928 [label="mse = 0.0\nsamples = 1\nvalue = 91500.0", fillcolor="#e5813914"] ;
927 -> 928 ;
